nep4 3 S Mo Ni 
cutoff 8 4 78 21
n_max 4 4
basis_size 8 8
l_max 4 2 0
ANN 30 0
 -1.6559185e-02
 -5.1553845e-01
 -6.2169218e-01
 -9.2825696e-02
 -2.1023579e+00
  1.1947531e-01
  1.0791756e+00
  1.5511907e+00
  4.3364039e-01
  1.6856039e+00
  2.0759664e+00
 -1.6483449e+00
 -2.5011997e+00
 -1.1267798e+00
 -3.1557646e-01
  2.1695474e-01
  1.3470080e+00
  4.2858332e-01
  2.6495773e-01
 -7.1292531e-01
 -2.1756370e+00
  5.9509480e-01
  8.0182381e-02
  5.8021653e-01
 -3.6757585e-01
 -5.0446486e-01
 -1.3460348e+00
  1.1231861e-01
 -4.6583772e-01
  1.1890451e+00
  8.9699972e-01
 -1.1177235e+00
 -7.9994148e-01
 -2.4026540e-01
  1.1982177e+00
 -1.2969579e+00
  4.2915657e-01
  2.4040273e-01
  1.0802133e+00
 -2.4183105e-01
 -2.3166774e-01
 -2.4144356e+00
  2.8035045e-01
 -2.2863784e-01
  3.2492682e-01
 -5.0044936e-01
 -2.1009660e+00
  2.1464348e+00
 -1.4635537e+00
  1.9433755e+00
  1.2203879e+00
  2.1403148e+00
 -8.4384555e-01
 -4.4085804e-02
  2.6902890e-01
  5.3543335e-01
 -1.6375526e+00
  1.8170609e+00
 -1.7502012e+00
  8.0356705e-01
 -1.3452274e+00
  2.0514240e+00
  1.0622319e+00
  3.4189069e-01
  1.8291911e+00
 -1.1792394e+00
 -1.1428925e+00
  1.7220558e+00
  1.5551304e+00
 -4.3344882e-01
  1.0003322e+00
  1.4027822e+00
 -2.7051464e-01
 -1.3388784e+00
 -1.5884097e+00
  7.0039237e-01
 -5.4357010e-01
 -8.9589614e-01
  8.8792080e-01
  4.7866926e-01
  3.9556524e-01
 -2.3038070e-01
 -3.9667219e-01
  6.4235425e-01
 -2.8544751e-01
  2.2377944e-01
  1.9219548e-01
 -1.4175763e+00
  3.4037477e-01
  2.5245721e-02
  4.7401074e-01
 -1.3420996e-01
  1.5253526e+00
  1.1190958e+00
  6.9541746e-01
 -3.6088535e-01
 -2.6323237e+00
 -1.4835902e-01
  3.7610465e-01
  5.9645694e-01
  3.9565986e-01
 -1.8408139e+00
  9.6069312e-01
  1.4073237e+00
  4.7960055e-01
 -4.5868888e-01
 -1.5279499e+00
  1.1718636e+00
 -9.6251291e-01
 -6.9681090e-01
 -1.7614666e+00
 -7.0299166e-01
  4.7893399e-01
  3.6230701e-01
 -1.1710515e+00
  9.3337722e-02
  2.1725355e-01
  4.1996914e-01
  5.0600842e-02
 -8.5938120e-01
  3.3149768e-02
 -7.2002631e-01
 -8.6145663e-01
  7.1946365e-01
 -1.1355714e-01
 -1.5995913e+00
 -5.4423177e-01
  1.1779631e+00
  1.5326988e+00
 -5.8394974e-01
  1.3162229e+00
  6.5990604e-02
 -1.3027916e+00
  1.5875378e+00
 -3.9196271e-01
 -1.0908809e+00
 -6.6836131e-01
  2.0898557e+00
  9.4836177e-03
 -3.6331853e-01
 -1.4177960e+00
 -8.8870376e-01
 -9.8090786e-01
  2.4268883e-01
  1.4162174e+00
 -1.8696016e-01
  2.3132620e+00
  2.1661976e-01
 -1.3544908e-01
  1.4667726e+00
 -2.2468535e-02
  3.0295756e-01
  1.0887707e+00
  6.7938805e-01
 -9.4230032e-01
  1.8752846e-03
  6.0489959e-01
  1.0984015e+00
  1.8352433e+00
  1.2768682e+00
 -6.8865769e-02
  4.6711260e-01
  3.7707987e-01
  6.3572091e-01
  2.3777153e+00
  6.2159061e-01
 -1.3964386e-01
  3.3899589e+00
  8.4588605e-01
 -4.8516569e-01
 -7.9752278e-01
  3.2441017e-01
  2.5411756e+00
  2.0494309e-01
 -4.8667032e-01
 -2.1822886e-01
  3.0042744e+00
 -6.7989075e-01
  1.4140910e+00
  7.8063726e-01
  1.2224688e-01
  7.9008126e-01
  1.2803383e+00
  8.1439716e-01
 -2.3165767e+00
  1.9534395e+00
  7.0142883e-01
  1.1669245e+00
 -1.7753650e-01
  2.2343946e+00
  1.4235803e+00
  4.1960490e-01
 -9.5158005e-01
  1.7824301e+00
 -2.4471152e+00
 -2.7923620e-01
  8.0823356e-01
  1.9642326e+00
 -5.1587000e-02
 -2.3966913e+00
  1.0725544e-01
 -8.3915991e-01
 -2.2208886e+00
 -6.2044775e-01
  1.4369807e+00
  7.1542656e-01
  1.5495110e-01
 -9.3295926e-01
 -1.8615223e+00
  6.6407204e-02
 -1.7509237e-01
  8.8936722e-01
 -9.3214589e-01
 -3.0250415e-01
 -1.6640450e+00
  2.9414263e-01
 -5.9806758e-01
  1.5327436e+00
  1.5110086e-01
 -5.7251328e-01
  4.3250099e-01
  1.9663868e+00
 -1.7709433e+00
 -8.5810954e-03
 -2.5275619e+00
 -3.2998199e+00
  9.2035371e-01
 -1.0218463e+00
 -3.3156484e-01
 -1.1935643e+00
 -1.1204764e-02
 -1.9627973e-01
  1.2769079e+00
 -8.2940841e-01
 -1.3661057e+00
 -5.3707874e-01
 -5.7571018e-01
 -2.2998166e+00
 -1.4622833e-01
  1.2645637e+00
 -3.6120695e-01
  5.2888960e-01
 -2.5745639e-01
  9.2283301e-02
  9.1437441e-01
 -2.2248988e+00
 -7.8929186e-01
  1.2891248e+00
  1.5436902e+00
 -8.0505764e-01
 -1.1469928e+00
  8.6940981e-02
 -9.7540629e-01
 -8.6098373e-01
  1.8973875e+00
  7.6569957e-01
 -1.6195579e+00
 -4.3988466e-02
  1.7255526e+00
  7.6990104e-01
  1.7489819e-01
 -2.2813971e+00
  4.1026747e-01
 -1.1055689e-01
 -1.9076382e+00
 -3.7294200e-01
 -5.3204793e-01
  1.0650151e+00
  7.5515181e-02
 -4.3115264e-01
 -4.1352019e-02
  1.1502702e+00
 -3.4969273e-01
 -1.6265091e-01
 -1.2648734e+00
  1.6075497e+00
 -3.7391901e-02
  1.9489642e+00
  9.4093728e-01
 -6.2004966e-01
 -2.1992414e+00
 -2.0465407e+00
  4.2624697e-01
  7.5295234e-01
 -6.4973772e-02
 -1.8469120e+00
 -2.1098232e+00
 -1.5659086e+00
 -3.0035517e-01
  7.3035836e-01
  4.8882806e-01
 -1.5714229e+00
 -1.3824685e-01
  2.2999589e-01
  1.2620950e+00
 -1.3811554e+00
  5.0818469e-02
  1.2482551e+00
 -2.7009377e-01
 -1.2518712e+00
  1.9806123e-01
  3.9148781e-01
  1.4679695e+00
 -8.7923700e-01
 -3.1658825e-01
  2.7987504e-01
  2.5654733e-01
  1.0131710e+00
  5.9522223e-01
 -1.6249658e+00
  3.7978795e-01
  2.0455036e-02
  3.2644951e-01
 -1.3550729e-01
 -1.9625498e-01
  2.4402609e+00
 -2.0704727e-01
 -9.0903008e-01
  1.3488579e+00
  4.1796529e-01
 -1.8227313e-01
 -7.7888000e-01
  1.1573923e+00
  2.7230269e-01
  1.5078093e-01
  1.6609927e+00
  4.4248268e-01
  1.4895049e+00
  6.6829044e-01
 -5.9719133e-01
 -9.2069125e-01
  3.5390109e-01
  2.3273537e+00
  3.0961125e+00
  1.3779358e+00
 -5.6818682e-01
 -8.1429034e-01
  2.7110073e-01
 -5.7929224e-01
  1.8828490e+00
  4.8053581e-01
 -1.9637519e-01
 -3.9842856e-01
  6.3821509e-02
  1.3018031e+00
 -1.9938995e-01
 -7.6889074e-01
  9.8337740e-01
 -1.1760759e+00
  1.5365231e+00
 -1.0844281e+00
  2.8581901e-02
 -1.2926424e+00
  1.3088416e+00
 -3.5969126e-01
  1.0549450e+00
  1.5880470e+00
 -5.5242348e-02
 -1.3913074e+00
 -1.2325467e-01
 -1.7327579e+00
 -7.7127206e-01
 -5.7910317e-01
 -1.1289307e-01
 -5.4198062e-01
  3.6519539e-01
 -1.4828176e+00
  2.3426697e+00
  1.1372319e+00
  1.0619446e+00
  8.1328195e-01
  1.4011409e+00
  4.6238896e-01
 -1.4804105e+00
  9.0221000e-01
 -8.7554818e-01
  1.3778772e+00
 -4.3682376e-01
  1.0910373e+00
 -7.8850466e-01
 -7.3511767e-01
  1.7522539e+00
  7.7718043e-01
  9.0701543e-02
  1.7633406e-02
  6.2426490e-01
  2.4996734e-01
  9.6392232e-01
  1.3291388e+00
 -9.3959236e-01
  1.2957792e-01
 -1.5728598e+00
  3.2609788e-01
  1.1328284e+00
 -6.6808748e-01
  7.7194691e-01
 -3.1521644e-02
 -1.3407520e+00
 -5.6463964e-02
 -8.3378799e-02
  1.3430787e+00
  1.8643537e+00
  1.0593972e+00
 -1.1643105e+00
  3.0076995e-01
  7.2010702e-01
 -1.2586259e+00
  2.6206746e+00
 -3.8728443e-01
  1.3853531e+00
  1.7048243e+00
 -1.4081694e-01
  2.0867525e-01
  5.6558943e-01
 -1.2427908e+00
  1.4466466e-02
  1.0964965e+00
  5.7107162e-01
  1.6804489e+00
  1.0140783e+00
  3.9228961e-02
  1.8453126e+00
 -1.4240172e+00
  3.2196468e-01
  2.6596537e-01
 -2.8210602e+00
  1.1401834e+00
 -4.8839626e-01
  3.2758665e+00
  1.1234125e+00
  4.6925423e-01
  3.6421549e-01
  1.4877534e+00
 -1.7829552e+00
  1.1767335e+00
  4.9615106e-01
  1.1736169e+00
  8.9196295e-01
 -2.0696058e+00
 -4.8863348e-01
  3.6453632e-01
 -1.6208841e+00
 -5.9917593e-01
  1.6482520e-03
 -4.5063306e-02
 -6.7274392e-01
 -1.8623786e-01
 -2.1593337e+00
 -6.6999994e-02
 -1.3247895e-02
 -1.2022070e+00
 -1.5231585e-02
 -6.0625583e-01
  1.2284781e+00
 -1.1039492e+00
 -4.0994557e-03
  2.7106830e-01
  5.6283438e-01
  2.1040320e+00
  3.3780487e+00
 -2.4611679e-01
  2.6101398e-01
  4.2316118e-01
 -1.3279364e+00
  1.1852388e+00
 -2.0008081e-01
  9.5240188e-01
  4.2345059e-01
  8.6474204e-01
  4.5537090e-01
  2.0891480e-01
 -1.2400928e-01
  1.1517637e+00
 -1.2689002e-01
  5.5924928e-01
  4.9937245e-01
  2.8217524e-01
 -2.2174418e+00
  2.8996792e-01
 -2.9026020e-01
 -2.1606375e-01
  1.9492594e+00
  1.5737267e+00
  4.3947071e-01
 -2.3734781e-01
 -1.8384065e-01
 -9.5687467e-01
  3.3247608e-01
  2.4502184e+00
  8.3117795e-01
 -1.9620320e+00
 -4.2801479e-01
 -1.5131424e-01
 -4.1327664e-01
  1.2943249e+00
  2.3567846e-01
 -2.5464725e-02
 -2.2738800e+00
  2.0139556e+00
  2.8177974e+00
 -1.6098100e+00
 -1.7092017e+00
  9.5067121e-02
 -1.8438096e+00
 -2.3397818e-01
  3.8146083e+00
  6.8399346e-01
 -1.0895336e+00
 -8.5141830e-02
 -2.6295733e-01
  6.8813038e-01
 -1.1954888e+00
  1.0749093e+00
  1.7374182e-01
 -1.6040968e+00
  3.7475085e-01
 -3.9479649e-01
  1.1814418e+00
  3.2761735e-01
 -1.4017518e+00
 -1.4034554e-01
  2.4919875e+00
  1.3106431e+00
  1.9200369e+00
 -5.6658685e-01
 -1.4221860e-01
 -1.7879421e+00
  4.1922608e-01
 -6.0645306e-01
  2.6141965e+00
  3.4560871e-01
  6.5969342e-01
  2.4889753e+00
  1.3353922e+00
 -3.4856752e-01
  8.1245494e-01
 -7.0398051e-01
  1.6339180e-01
 -8.2608855e-01
 -2.8191090e+00
 -8.6596295e-02
 -4.5752391e-01
 -1.4655256e-01
 -4.4105744e-01
  6.8147337e-01
  8.7012637e-01
  6.6838461e-01
  1.2285802e+00
 -1.5013126e-01
 -1.1991072e+00
 -2.0499571e-01
 -5.3324515e-01
  1.8595845e+00
  1.4194065e+00
  6.6910428e-01
 -3.3135694e-01
  1.2835761e+00
 -4.4402969e-03
  5.2583778e-01
  2.3527064e+00
 -6.5265620e-01
  3.8484781e+00
 -2.7542982e-01
 -5.1680195e-01
  3.6962804e-01
 -6.0913074e-01
 -1.1488413e+00
  1.1877452e+00
  5.0074393e-01
  2.8529993e-01
 -8.1934547e-01
  1.0206279e+00
 -2.0158195e+00
 -6.2573016e-01
  1.8436767e+00
  2.3033252e-02
  1.7281505e-01
  1.4616463e+00
 -1.4594803e+00
 -1.8019633e-01
 -5.1457454e-02
  1.5955356e-01
  1.4932300e-01
  8.3653912e-02
  1.2189926e+00
  2.2698512e-02
  8.8506925e-01
  1.8054713e-01
 -1.7588083e-01
 -3.6867541e-01
 -1.6847421e-01
 -1.7338598e+00
 -3.4726524e-01
  1.0643661e+00
 -9.3535966e-01
 -7.4695140e-01
  8.3379960e-01
  7.9344946e-01
  6.9529372e-01
  7.0074075e-01
  1.2257271e-01
  5.8930296e-01
 -4.4704759e-01
  1.1091548e+00
  5.3805804e-01
  1.4639309e-02
  2.8241322e+00
  1.6073123e-02
 -9.7314411e-01
 -1.8202275e-01
  5.6948912e-01
 -5.5263996e-01
  1.5096573e+00
  1.3329177e+00
  7.8831822e-01
 -8.4234393e-01
 -3.5368198e-01
  1.2339495e+00
  1.2423475e+00
  1.0072114e-01
  1.4505374e+00
 -4.0599340e-01
  6.6055256e-01
 -2.8992116e-01
  8.9352041e-01
  3.2852319e-01
  2.6266298e-01
  2.2162538e+00
 -7.8811198e-01
 -1.2866102e-01
 -2.2653742e+00
 -3.1053466e-01
  4.0928769e-01
  2.8482392e-01
 -1.2561220e-01
 -8.4718987e-02
  1.4923449e+00
  1.6535007e+00
  4.6984690e-01
  5.0805396e-01
 -3.8214090e-01
 -3.4676614e-01
  9.4360566e-01
 -2.6761229e+00
  5.5936986e-01
  4.3745026e-01
 -1.7327951e-01
  8.0230433e-01
  8.8643616e-01
  8.7479782e-01
 -1.7876208e-02
  2.8168520e-01
 -6.5013331e-01
 -4.4599032e-01
  2.1547508e-01
  1.0086739e+00
  1.4370673e+00
 -1.1924198e+00
  1.4175040e+00
 -1.3079491e+00
  2.8129226e-01
  3.8885725e-01
 -2.1657120e-02
 -4.9285406e-01
  1.2083733e+00
 -2.9636759e-01
 -1.1208403e+00
 -4.4097093e-01
  1.3916775e+00
 -1.5341777e+00
 -5.1500195e-01
  2.0004991e-01
  2.6814383e-01
 -3.3980054e-01
 -2.2245107e+00
 -3.8809055e-01
 -2.2396212e+00
  4.0973121e-01
  6.2844408e-01
 -6.9613588e-01
  4.3375936e-01
 -4.0400478e-01
 -9.8974353e-01
  5.4354089e-01
 -2.5524551e-01
  1.0922779e+00
  4.8273161e-01
  5.2108908e-01
  9.8321222e-02
  1.0516182e+00
 -1.3329213e+00
  1.3556249e-01
 -2.4840678e-01
 -2.9731232e-01
  1.8501887e-01
 -6.1310512e-01
 -2.0491412e+00
 -2.2839296e+00
 -1.2975638e-01
 -3.0198529e-01
 -1.5940595e+00
 -9.7516340e-01
  2.4259615e+00
 -6.7161763e-01
  1.4649573e-01
  1.9773533e+00
  1.0314467e+00
  1.3381102e+00
  1.2458899e+00
  1.0841614e+00
  1.7136345e+00
  9.1187513e-01
 -3.7677824e+00
  1.0356551e+00
 -8.6345261e-01
 -6.5950036e-02
  1.0106010e+00
  3.9433360e-01
  1.3842250e+00
  1.5618988e+00
  3.5289638e+00
 -9.2160511e-01
 -9.8934060e-01
 -5.0652451e-03
 -9.0538120e-01
 -5.3845441e-01
  1.1562236e-01
  1.1739639e+00
  6.4736396e-01
 -3.4883088e-01
  4.0428847e-01
 -1.2229863e-01
  8.2235225e-03
  5.3445178e-01
  8.4802550e-01
 -1.1586229e+00
 -6.2136233e-01
 -1.5938605e-01
  1.2478926e+00
  8.6973751e-01
  1.2916173e+00
 -1.2303475e+00
 -3.3124793e-01
  1.9831481e+00
 -7.9404253e-01
  1.5067382e+00
 -1.1764661e+00
 -1.1820226e+00
  2.2992969e+00
  1.2860407e-01
  1.4314872e+00
 -1.0246365e+00
  8.1217116e-01
  4.9459168e-01
 -2.5828969e-02
  5.3920531e-01
 -9.2611015e-05
  1.0249414e+00
  2.5030607e-01
 -1.6240079e+00
 -1.5775884e+00
 -9.7987407e-01
 -3.5952783e-01
  2.1371398e+00
  8.5427231e-01
  3.7887830e-01
  1.8580080e+00
  7.0036918e-01
 -8.6835527e-01
 -4.5212024e-01
 -1.4197211e+00
 -2.3206971e+00
 -2.6138716e+00
  5.8005923e-01
  1.5358778e+00
  1.7053113e+00
  8.5473657e-01
  6.9050872e-01
 -1.2949337e-01
  1.3321044e+00
  8.7073314e-01
 -1.2085850e+00
 -1.0770538e+00
  5.5291009e-01
 -1.1908349e+00
  2.5165484e+00
  1.3335376e+00
  7.3500955e-01
  3.1764236e-01
  2.6204926e-01
 -1.0797235e+00
 -4.5887038e-01
  5.3942239e-01
  6.1940920e-01
  1.2188355e+00
 -6.4287877e-01
  7.2109824e-01
 -1.8790017e+00
 -7.7149516e-01
  8.3977920e-01
 -6.4587730e-01
 -1.3990003e+00
 -1.4115106e+00
  1.3333144e+00
 -3.2737153e+00
 -8.8093531e-01
 -1.1994740e+00
 -6.4138335e-01
  1.7445496e+00
  2.9947746e+00
 -6.5347278e-01
  1.6275181e-01
  2.0188943e-01
 -5.7869691e-01
  1.0537235e+00
 -2.7255745e+00
 -1.5089956e-01
  1.7710438e+00
  7.0393640e-01
 -5.9687966e-01
 -8.2189101e-01
 -2.6057181e-01
  2.9730764e-01
 -1.2175602e+00
  1.4139003e-01
  4.7335729e-01
 -5.4272115e-01
 -2.0215924e+00
 -3.0114183e-01
  7.7773607e-01
 -1.7956938e+00
 -2.0408711e+00
 -4.6147707e-01
  4.9592066e-01
  9.4335955e-01
 -2.8273081e-02
 -2.7756166e-01
 -1.8809685e+00
  2.0610812e+00
  6.3458371e-01
 -1.4947586e+00
 -1.0962632e+00
 -4.8104551e-01
  1.5436014e+00
 -3.8074830e-01
  3.7458581e-01
 -2.7538389e-01
  4.1899461e-01
 -2.1087272e+00
  1.6125681e+00
  6.5246934e-01
 -2.9377002e-01
  4.6244332e-01
  1.2088585e+00
 -9.8297852e-01
 -3.4672359e-01
 -9.4582313e-01
  1.9144892e+00
  4.0616989e-01
  8.8750237e-01
 -3.5518959e-01
  3.8888377e-01
  9.2384076e-01
 -7.1033859e-01
  2.2773147e+00
 -1.5009043e+00
  2.9694669e+00
 -6.3835883e-01
  7.9363203e-01
 -5.5199426e-01
 -1.8362444e-02
  9.2767692e-01
 -4.7716543e-01
  5.6841922e-01
  3.3015364e-01
 -1.2892395e-01
 -7.0805736e-02
 -6.1118793e-01
 -2.2408838e+00
 -7.0240360e-01
  1.0709684e+00
 -2.1353571e+00
  4.2741317e-01
  1.0580280e+00
  1.9856564e+00
 -7.7611095e-01
  1.4147392e-01
 -4.3022519e-01
 -1.2660389e+00
 -3.9585295e-01
  2.5167167e+00
  9.9935991e-01
 -2.6720703e-01
 -4.2728731e-01
  2.8165784e-02
  1.1148818e+00
  1.2420397e+00
  8.9527708e-01
 -3.0620062e+00
 -1.0336974e+00
  2.3643167e+00
 -6.3206655e-01
  2.4892159e+00
 -1.5361983e+00
 -1.4824915e+00
  1.4388517e+00
  8.7126696e-01
 -2.1852386e+00
  1.5883828e+00
 -4.1910094e-01
 -8.0140477e-01
 -8.1693506e-01
 -1.5856364e+00
 -8.2316554e-01
  6.1806256e-01
 -4.2113426e-01
 -5.9330266e-02
 -1.3484989e+00
 -1.0048493e-01
  5.6933302e-01
 -1.2124902e+00
 -1.5387430e+00
 -1.1581333e+00
  9.0658247e-01
  6.2434977e-01
  4.0915266e-01
  1.2635369e+00
  2.6134408e+00
 -2.4470115e-01
 -3.1900421e-01
 -2.0085227e-01
  3.4552094e-01
 -3.2812625e-01
 -1.6460561e+00
 -2.2809257e-01
 -2.3946118e-01
  5.3676307e-01
 -1.3669693e+00
 -2.4684893e-01
 -3.5507378e-01
 -8.9689434e-01
  1.0425152e+00
 -1.6897393e+00
  1.2880976e+00
 -4.1289338e-01
 -8.9378339e-01
  2.5852007e-01
 -1.7702347e-01
  2.5214973e-01
 -5.6716245e-01
 -3.5772160e-02
 -4.4246525e-01
 -1.3980497e+00
  1.1819052e-01
 -7.6056041e-02
  9.6617490e-02
 -9.6519515e-03
 -1.4513460e+00
  3.8286185e-01
  9.3399230e-03
 -4.1997842e-02
 -5.2010977e-01
 -1.5307428e+00
  2.0284009e+00
  6.8208140e-01
  1.0739139e-01
 -6.3252568e-01
 -9.4575322e-01
 -3.9049712e-01
 -9.2466426e-01
 -4.4521195e-01
 -8.0047375e-01
 -1.0622311e+00
  2.0246828e+00
 -5.2760208e-01
 -1.8079260e-01
 -5.1944071e-01
  1.0957847e-01
 -6.6091202e-02
 -2.5244626e-01
 -1.2652515e+00
 -2.8973544e-01
 -7.5690019e-01
 -3.5308582e-01
 -7.0391911e-01
 -1.5584797e+00
  1.4233813e+00
  2.5558037e-01
  8.7429208e-01
  6.8737549e-01
  1.7983037e-01
  1.2024336e+00
 -3.0386386e-02
  1.2087905e+00
 -8.6820704e-01
  1.7810512e-01
  2.3521680e-02
  4.6176511e-01
  3.7411582e-01
  5.9989971e-01
 -4.8361425e-03
 -1.0089414e+00
  2.2927697e+00
  8.7707788e-01
  1.0207371e+00
 -3.9697412e-02
  7.2923422e-01
  7.1496391e-01
  7.9131562e-01
  3.7039813e-01
  1.1614566e+00
 -1.9722652e-01
 -1.1988971e-02
  2.6118028e+00
  7.4309684e-02
  2.8329477e+00
 -2.1501486e+00
 -1.4499842e+00
 -7.8380275e-01
 -9.3541837e-01
 -4.1872865e-01
 -1.4836842e-01
  2.0998041e-01
 -8.5917599e-02
  1.9557112e-01
 -1.3462727e+00
  2.6901321e+00
 -8.6933881e-01
  1.9919195e+00
  1.1064519e+00
 -1.0197511e+00
 -7.1932179e-01
 -1.4735202e+00
  4.4269729e-01
  1.3251656e+00
  1.0408949e+00
 -4.8386911e-01
 -3.1474736e-01
 -5.9510177e-01
  2.6574340e-01
 -3.5601085e-01
  7.6888442e-02
 -4.3685114e-01
  5.3044204e-02
  1.2306975e+00
 -1.5274649e+00
 -6.6121435e-01
 -6.2584901e-01
 -6.8302959e-01
 -9.1167712e-01
  2.7411160e-01
 -1.1802660e+00
 -1.1617600e+00
  3.8220841e-01
 -3.3174410e-02
 -1.1019843e+00
 -2.9178598e+00
  1.3655025e-01
 -1.2151953e+00
  7.6932079e-01
 -4.0061411e-01
 -6.1059237e-01
 -1.5033374e+00
 -1.1542894e+00
  8.5266024e-01
  1.5952122e+00
  3.5033754e-01
  7.8362840e-01
 -6.9312429e-01
 -5.5262315e-01
  1.4192669e+00
 -1.4864081e+00
  1.7930359e+00
  1.3186580e+00
 -2.0060821e+00
  1.0872306e+00
  9.2867792e-01
 -1.3986274e+00
  4.2926963e-02
  5.9909731e-01
  1.2489551e+00
  1.6260169e+00
  1.8082119e+00
  1.5161998e+00
  9.6494007e-01
 -7.1682602e-01
 -1.9306476e+00
 -1.8135032e-01
 -4.5463506e-02
  1.2139407e+00
  8.0202678e-03
  9.9162704e-01
  3.6561731e-01
 -8.3113015e-01
  2.1264501e+00
  8.4436834e-01
  2.6436675e-01
 -1.2037033e+00
  8.6829001e-01
  3.6832502e-01
  9.8026186e-01
  6.8822199e-01
  7.0961624e-01
  4.8782152e-01
 -5.8381945e-01
 -2.5077190e+00
  1.8806435e+00
  5.9800607e-01
 -1.3296543e-02
 -6.1811650e-01
 -2.3375931e-01
 -1.0780340e+00
  9.8275745e-01
  6.8647075e-01
  6.8664575e-01
  1.2380317e+00
  8.5605454e-01
  1.3566543e+00
 -1.1434684e+00
 -1.7536666e+00
  1.1984534e+00
 -2.2862592e+00
 -4.8012465e-01
  1.5819412e-01
  4.1664645e-02
  8.5741952e-02
 -6.3231036e-02
  1.9902726e-01
  4.8490256e-01
 -5.0301522e-01
  4.6520865e-01
  1.2371899e+00
  1.4072318e-01
 -1.5355794e+00
  1.2929059e+00
 -1.4069699e+00
  7.5004292e-01
  4.5230931e-01
  1.6889920e+00
 -1.0007720e+00
  9.5356526e-03
  2.3648965e-01
 -6.7716342e-01
  6.7413989e-03
 -9.7097501e-02
 -5.2731477e-02
  7.1363926e-01
 -1.6073912e-01
  7.0825882e-02
 -3.9884132e-01
  1.7721901e+00
 -5.2230889e-01
 -2.1342740e+00
  6.9149898e-04
 -2.2366910e-01
 -4.0780863e-01
 -4.4123238e-01
 -1.4340073e+00
 -1.4072977e+00
 -7.2068840e-02
 -3.5307714e-01
 -9.9165851e-01
 -5.8340991e-01
 -2.0523987e+00
 -1.7392856e+00
  2.3625059e+00
  1.2363844e+00
  1.7212327e+00
 -1.6885956e-01
 -1.1432842e+00
  3.6616373e-01
 -1.2711415e+00
 -9.7698301e-01
 -2.3248603e+00
  1.4707391e+00
 -1.0526309e+00
  2.7582729e-01
  6.6917308e-02
  1.3799142e+00
 -8.9851481e-01
  1.7871046e+00
  2.6963426e-02
 -8.8589495e-01
  8.8168192e-01
  4.0226862e-01
  1.0329733e+00
  9.1794741e-01
  1.2796209e+00
 -9.5716083e-01
 -2.0238132e+00
 -8.4117568e-01
  1.8103721e+00
  7.9979712e-01
  1.5336022e-01
 -1.8694223e+00
  8.7854153e-01
 -3.6600143e-01
 -1.9701729e+00
 -1.1457345e+00
 -9.5422316e-01
  1.7188598e+00
  5.8618200e-01
  1.0592091e+00
 -8.3554643e-01
  7.9627037e-01
  1.2141695e+00
  2.0945342e+00
 -3.7995481e-01
 -9.6614748e-02
 -1.3757721e+00
 -2.5493190e+00
  2.7036130e+00
 -9.9346888e-01
 -7.2787896e-02
 -5.3055155e-01
 -8.0285567e-01
  1.3736827e+00
 -1.5161954e+00
 -2.9557204e-01
 -1.9833708e+00
 -2.5560942e+00
 -9.3206751e-01
  1.2115017e+00
 -8.8058335e-01
  7.4573280e-03
 -1.0019562e-01
  1.3486800e-01
  3.1730002e-01
 -3.4763327e-01
  7.9412585e-01
 -6.5897328e-01
 -6.7675865e-01
  4.3263790e-01
  5.7383245e-01
 -2.6213649e-01
  3.1250417e-01
  2.9604676e-01
  3.0134168e-02
 -4.8750094e-01
 -4.7923051e-02
 -4.7575426e-01
 -2.5206387e-01
 -4.4899216e-01
  9.6325390e-02
 -2.6297322e-01
  1.0314312e+00
  5.3493392e-01
 -1.3066377e-01
  3.6701959e-01
  1.8395038e+00
 -1.2883431e+00
  1.0155863e-01
 -3.1900796e-01
  6.2965035e-02
 -1.4525135e+00
  6.3764960e-01
  4.1492993e-01
 -1.0793298e+00
 -6.2931901e-01
  2.5541773e-02
 -4.3415743e-01
  7.2107571e-01
 -6.0655743e-01
  3.1886148e-01
  2.0009387e+00
 -9.0917665e-01
 -1.6969045e+00
  1.6584437e+00
  1.9309982e+00
 -1.1551399e+00
  8.5009944e-01
  1.2643044e+00
  5.9928292e-01
  6.0534000e-01
 -1.5153804e+00
 -3.8839912e-01
  7.0089263e-01
  2.4475183e+00
  9.2991374e-02
  6.2337416e-01
 -1.0583663e-01
  7.8703487e-01
 -6.5332097e-01
  4.7953555e-01
 -1.1578745e+00
  4.9525124e-01
  2.5316074e+00
 -1.3912957e+00
 -1.2345591e+00
  1.2331837e+00
  1.0776204e+00
 -4.7580227e-01
 -9.1948295e-01
 -3.9164004e-01
 -1.3822573e-01
 -7.5877237e-01
  1.9696422e+00
  3.9826402e-01
  4.8540977e-01
  2.4668166e-01
  1.8143934e+00
 -6.0794532e-01
 -2.1563193e-01
 -7.4730593e-01
  1.1399274e+00
 -1.5661999e+00
  5.0022680e-01
 -1.2022784e+00
  1.5436566e+00
 -9.1998887e-01
 -5.1595402e-01
  6.6239059e-01
  2.5923026e-01
  3.6734995e-01
  2.3063134e-01
  6.2543976e-01
 -7.8019625e-01
 -4.3340302e-01
 -8.8104892e-01
  1.7838676e+00
 -2.3396917e-01
 -7.0616788e-01
  5.5800045e-01
  1.6043265e+00
 -2.9076383e-01
 -1.2420742e-01
  1.6876568e+00
 -5.1472809e-02
 -6.8600601e-01
  1.6823769e+00
  2.8657216e-01
 -7.8899217e-01
 -3.3006316e-01
  8.8427621e-01
 -3.6870055e+00
 -3.0601445e-01
  3.3277830e-01
 -6.6981411e-01
 -1.5771775e+00
 -3.0766615e-01
  6.5727437e-01
 -1.7213796e+00
  1.9314549e+00
  9.6228278e-01
  1.5916437e+00
  1.2598491e+00
  1.9110644e-01
 -1.2665887e+00
 -8.8900024e-01
  2.8516349e-01
  9.0914494e-01
  2.7768185e+00
  1.3920377e-01
  3.2716787e-01
  2.9848304e-01
 -6.2400490e-01
  1.9014730e-01
  5.2123106e-01
  7.0499748e-01
 -1.3988069e+00
 -1.9736270e+00
  5.2075505e-01
 -2.3430498e+00
  1.1098650e+00
 -1.7046732e+00
 -1.5546402e+00
 -3.8286364e-01
  1.2006229e+00
 -2.8341937e+00
  3.9032668e-01
 -3.5790578e-01
  8.6839265e-01
 -3.9691147e-01
  5.5879563e-01
  1.5625019e+00
 -2.1941625e-01
 -1.0548114e+00
 -7.4679774e-01
  1.7064550e+00
 -1.5692340e+00
 -3.8609502e-01
  9.2949860e-02
  2.0749266e+00
  1.2338918e+00
 -1.2060475e+00
 -1.0339186e+00
  6.7162544e-01
  6.0282254e-01
  4.9343807e-01
 -1.1772887e+00
  2.0478690e+00
  1.1808407e+00
 -1.2485813e+00
  2.0720419e-01
  4.1626754e-01
  1.6754562e+00
 -1.2446364e+00
  6.5977424e-01
 -1.2893456e+00
 -8.2905132e-01
  7.1873987e-01
 -7.2082800e-01
  6.1401910e-01
  3.7429297e-01
  6.7640382e-01
  1.9182797e-01
 -1.0397295e+00
  1.1471641e+00
  3.7358695e-01
  5.4278040e-01
  2.8925782e-01
 -1.3724937e+00
 -2.1310337e+00
  1.0592111e+00
 -2.8012297e+00
  7.2726679e-01
  3.5751629e-01
  9.4990331e-01
  9.5018899e-01
  2.3559393e-01
  1.1355334e-01
  4.6865478e-02
 -2.9361906e+00
 -1.2779881e+00
  2.2670732e-01
  8.7694341e-01
  1.6025885e+00
 -8.5463011e-01
  3.2307759e-01
  2.8908999e+00
 -1.3002820e+00
  7.4143237e-01
 -1.4453243e+00
  1.4430631e+00
  7.5154533e-03
 -5.3621429e-01
  3.0289084e-01
  6.9420826e-01
 -7.7176467e-02
  8.8898391e-01
 -9.0216732e-01
  2.8103356e+00
 -5.8483005e-01
  6.6898793e-02
  6.7324269e-01
 -2.3394434e+00
 -1.4825863e+00
 -1.7697189e+00
 -9.7238278e-01
 -1.0706161e+00
  8.6724684e-02
  1.0430151e+00
 -1.3772380e+00
  1.7271279e-01
 -1.1446801e+00
 -1.1749276e+00
  8.0868167e-01
 -4.2963579e-01
 -2.0660288e+00
 -2.4649301e+00
 -1.2990301e+00
  2.8509834e-01
  6.4867121e-01
  1.0460378e+00
 -6.2178618e-01
  6.7721881e-02
 -4.9040928e-01
  3.2871661e-01
 -9.2835647e-01
 -4.3139341e-01
  5.3726679e-01
 -2.9290026e-01
 -7.5309354e-01
 -1.7775587e+00
 -1.7675114e-01
  7.9899806e-01
 -2.2621597e-01
  1.8201184e+00
 -1.0636929e+00
  7.6625407e-02
 -1.3300515e+00
 -7.9236615e-01
 -1.6507747e+00
 -1.4054844e+00
  3.1979993e-01
  2.2388136e+00
  1.0904603e+00
  4.3990608e-02
 -6.7308563e-01
 -5.3059691e-01
  1.3000808e+00
 -2.1003595e-01
 -1.5405631e-02
  4.6465036e-01
  1.8453256e+00
  7.4322581e-01
  2.5068505e+00
  4.2275947e-01
  2.0561087e-01
  6.9369054e-01
 -7.7002428e-02
  7.4807066e-01
  1.3052762e+00
 -9.0080714e-01
 -2.1193333e+00
 -4.1933158e-01
  3.3691576e+00
 -2.4628799e+00
 -4.1520956e-01
 -8.0258209e-01
 -1.4202882e+00
 -2.3689470e-01
  9.6323228e-01
  9.0300816e-01
 -2.4994648e+00
  4.3126935e-01
  8.0952626e-01
 -1.7066245e+00
  1.1963280e+00
 -4.7653690e-01
 -8.9851093e-01
  1.2445568e-02
  6.8250394e-01
  1.8693672e+00
  1.6143502e-01
  4.4353291e-02
 -1.7941754e+00
  4.4183254e-01
  1.6765642e-01
  1.6927346e+00
  2.5401095e-01
  9.0385717e-01
 -1.2149253e+00
  1.9765642e+00
  2.5270668e-01
  2.0880752e+00
  2.8404307e-01
 -7.4584436e-01
  1.1679775e+00
 -4.1853940e-01
 -1.6908708e+00
 -1.5016967e+00
 -1.3190653e+00
  1.5791098e+00
 -9.5849717e-01
 -2.0607795e-01
 -9.5634705e-01
 -1.8031014e+00
 -1.2122118e+00
 -3.9341745e-01
  8.7298885e-02
 -9.5408386e-01
 -1.5356630e+00
 -1.1962439e-01
  2.6510185e-01
 -7.1237266e-01
  4.4003996e-01
  1.0072016e-01
 -1.9520836e-01
  5.2987128e-01
  8.9925480e-01
 -1.3139980e+00
  7.5060880e-01
 -4.8584336e-01
 -1.1787498e+00
 -2.2734670e-01
 -5.4770368e-01
  2.0154467e+00
 -2.0322471e+00
 -6.4824164e-02
  6.3098830e-01
  1.2419767e+00
 -2.2975090e+00
 -8.7168574e-01
  1.7076242e+00
  2.2074717e-01
 -4.4527981e-01
  1.3048939e+00
  1.3483401e-01
 -1.2249424e+00
  1.1460351e+00
 -1.5354346e-01
 -9.8980415e-01
 -1.9501214e-01
  3.8781629e+00
 -8.3087999e-01
 -5.4187167e-01
 -2.1737297e-01
  2.7903891e-01
  1.2014909e+00
 -1.3569236e+00
 -1.3858446e+00
 -1.5714474e+00
  1.7384617e-02
  1.9443619e+00
  7.4743152e-01
 -1.1193885e-01
  1.4296602e+00
 -8.3911580e-01
 -2.9969949e-01
 -4.0110466e-01
  3.3208435e+00
 -1.2945560e+00
 -3.9192706e-01
  7.5213230e-01
 -1.3623973e+00
 -1.1188525e+00
 -1.1936122e+00
 -1.6193388e+00
  2.9260436e-01
 -6.4332139e-01
 -1.7323242e-01
  1.7812699e+00
  1.9237156e+00
 -1.7088132e+00
 -6.1667398e-02
 -9.2616338e-01
 -2.7881818e+00
 -1.2743990e+00
 -2.6072368e-01
  9.0863099e-03
  1.3300509e+00
  2.4537024e+00
  7.2056955e-01
 -1.1907972e-01
 -8.4991121e-01
  1.5864029e+00
  8.3011530e-02
  3.0588751e+00
  8.1933391e-01
 -1.4058485e+00
 -6.2650967e-01
 -1.1869687e+00
  2.0059819e+00
 -1.8203185e-01
  1.1989458e-01
  1.3909097e+00
  2.0180445e+00
 -1.6710376e+00
  6.6045284e-02
 -5.8797199e-01
  2.5513043e+00
 -6.8067288e-01
 -2.4083202e+00
  1.4156467e+00
 -1.8398321e-01
 -6.5526569e-01
  2.6973469e+00
 -7.5701505e-01
  1.0388561e+00
 -8.7042695e-01
 -1.9878282e-01
 -9.9522971e-02
 -5.1558000e-01
  9.0233445e-02
  2.1152494e+00
  9.9041915e-01
  1.9654130e+00
 -5.9003246e-01
  1.3758451e+00
  4.8897829e-02
 -1.0781090e+00
 -3.6885989e-01
 -5.0557035e-01
 -2.1245756e+00
 -1.9950241e+00
 -5.7972550e-01
  8.9600056e-01
  7.1725297e-01
 -7.6401359e-01
 -4.8991900e-02
  9.6613568e-01
  4.7405279e-01
 -1.4885791e-01
  2.3622210e+00
  1.1515598e+00
  9.4097328e-01
  1.8960413e-01
 -1.0179930e+00
  3.4926569e-01
 -8.0540198e-01
  4.3354455e-01
  1.9902134e+00
  4.3464705e-01
 -3.9012814e-01
 -2.6089415e-01
  8.1725496e-01
 -3.6512468e+00
 -9.1375276e-02
  9.6065216e-03
  1.4293940e-01
 -8.9336479e-01
 -9.8486587e-02
 -3.3875459e-01
 -5.6228125e-01
 -8.9815982e-02
  2.9405612e-01
 -3.9826047e-01
  6.0600495e-01
  3.2358816e+00
  8.8803941e-01
 -1.4645016e+00
 -1.9548893e-01
  1.4399700e-01
  8.6043352e-01
  1.2566404e+00
  1.1543056e+00
 -3.8137895e-01
 -1.8487071e+00
 -2.7167525e+00
 -2.7407894e+00
  2.3669057e+00
 -1.6794226e+00
 -3.5927072e+00
  7.7440576e-03
  2.1835321e-01
  3.2448107e-01
 -1.1602849e+00
 -2.4379823e+00
 -7.5787383e-01
 -4.4320711e-01
  1.5626620e+00
 -1.8971601e-01
 -8.1224746e-01
 -1.9374233e+00
  1.7898550e+00
 -7.1561754e-01
  7.5228199e-02
 -1.0264466e+00
  1.6101948e+00
 -1.5270495e+00
 -1.4089921e+00
  1.1925946e+00
 -2.6566112e+00
  4.1448042e-01
  2.1261206e+00
 -4.3464571e-01
 -2.5284496e-01
  1.8886399e+00
  2.1673176e+00
  4.7033387e-01
  1.8393608e+00
 -2.3773080e-02
 -2.1487388e-01
 -1.4473410e+00
  3.2475007e-01
 -1.1072441e+00
 -8.8401890e-01
  2.3685305e+00
 -1.2689265e+00
  3.5150394e-01
  5.9139043e-01
 -1.1072868e+00
  6.9128639e-01
 -4.2904291e-01
 -7.2481704e-01
 -7.8170466e-01
  2.2473036e-01
  1.8895394e+00
  4.9100175e-01
  1.7833998e-02
 -1.2443794e+00
 -2.2891298e-01
 -4.9973506e-01
  1.2006497e+00
 -6.6324490e-01
 -1.3239129e+00
 -3.4387106e-01
  1.6903602e+00
 -6.6545254e-01
 -2.7110127e-01
  2.1574986e+00
  5.2698070e-01
 -1.2618771e+00
 -2.9622784e-01
  1.6615919e+00
 -4.4675213e-01
 -3.1059760e-01
  7.2237980e-01
  1.2909019e-01
 -2.9831104e-02
  1.1527698e+00
 -6.5756279e-01
 -2.8121886e-01
  1.1553903e-01
 -8.8292623e-01
  6.5486646e-01
  1.5087410e+00
 -1.8264325e+00
 -8.7107815e-02
 -1.3285838e+00
 -1.0644153e+00
  1.3924348e+00
 -6.5586770e-01
 -2.0628989e-01
  7.1923441e-01
  2.5937986e-01
 -1.5272797e+00
 -8.2861316e-01
 -2.9012289e+00
  9.2253613e-01
  3.8926890e-01
 -1.2393659e+00
 -5.7044041e-01
  9.8223060e-01
  1.6615092e+00
 -1.6646127e+00
  5.1041114e-01
  8.7090677e-01
  1.0242162e+00
 -2.0757216e-01
 -1.9638965e+00
 -5.3640127e-01
 -1.7270590e+00
  9.6779782e-01
 -5.3032750e-01
  2.9732443e-03
  3.9282152e-01
  1.5170698e+00
 -4.9559128e-01
 -8.0968082e-01
 -1.5344141e+00
  1.3616792e+00
 -1.7656108e+00
 -1.3337275e+00
 -8.3516371e-01
 -2.4986532e+00
 -2.5561419e+00
  7.3644483e-01
 -2.5803165e+00
  1.5934619e+00
  1.2253002e+00
  2.4844723e+00
  1.7387712e+00
  3.9833978e-01
  5.2439517e-01
  2.3575960e-01
  7.2027177e-01
  1.0931330e+00
  3.0287144e-01
  6.3716990e-01
 -1.7456506e-01
 -6.4290303e-01
  2.5143399e+00
  4.8964924e-01
 -4.7211611e-01
 -1.7147709e+00
  9.6270066e-01
 -6.0816324e-01
  1.9324137e+00
 -1.8763570e+00
 -1.2744621e+00
 -4.6497500e-01
  8.9564279e-02
 -5.7058311e-01
  1.3720761e-01
 -1.3777816e+00
  1.7240867e-01
 -2.5947750e-01
 -1.1153234e-01
  5.4759550e-01
  7.4770635e-01
 -1.0514228e+00
 -1.7857740e+00
 -3.7787971e-01
  7.7723497e-01
 -1.0868893e+00
 -4.5506516e-01
  3.2007983e-01
  1.9356185e+00
 -3.5330361e-01
 -7.6240778e-01
  1.2808282e+00
  1.8371432e+00
 -3.0872267e-01
  2.7880766e+00
 -1.2242241e+00
  1.3878946e+00
  1.5106992e+00
  1.7314812e+00
  5.2011341e-01
  2.1137209e-01
  5.6626827e-01
 -6.6519958e-01
  2.6110587e-01
  1.1784271e+00
  1.1902170e-01
  2.3627412e+00
 -4.8436481e-01
  8.8872468e-01
  1.3752036e-01
  2.7645593e+00
 -6.8499500e-01
  2.3546550e-01
  1.8842036e-01
 -4.7171089e-01
 -3.7779176e-01
 -8.8536030e-01
 -6.2773979e-01
 -3.6148688e-01
 -1.4532143e-01
 -1.8791260e-01
 -4.5176986e-01
  5.7255399e-01
 -3.7261471e-01
  2.6101401e+00
 -3.8772467e-01
 -4.5443636e-01
 -3.2557672e-01
  3.6732215e-03
  6.7726123e-01
 -1.8539171e-01
 -1.8134277e-01
  2.1193535e+00
 -3.3489886e-01
 -6.9142446e-02
 -6.7965460e-01
 -1.7386556e-01
  7.8279920e-02
  2.0781505e+00
 -2.6805487e+00
  2.2996053e-01
  2.2334259e+00
 -7.4416125e-01
 -8.6848927e-01
 -9.3318182e-01
 -1.2907890e+00
 -8.0945283e-01
 -3.8355228e-01
  1.5988882e+00
  1.1074795e+00
  1.0177069e+00
 -1.1729764e-01
  4.0903021e-02
 -2.7397269e-01
  1.4059404e+00
  2.0819638e+00
  3.0808339e+00
 -1.3518929e+00
  8.3549428e-01
  1.1711124e+00
 -2.2173198e-02
  3.3312175e-01
  7.3381446e-02
  1.4688761e+00
  7.8278130e-01
  1.3248236e+00
  4.8580974e-01
  6.2626612e-01
 -1.6455157e+00
  3.5081911e-01
 -4.2448533e-03
  1.3979110e+00
 -3.3731170e+00
 -5.9473830e-01
 -1.6888627e-01
 -8.9778835e-01
 -2.7832574e-01
 -1.3664827e-01
 -1.6780674e+00
 -1.8608037e+00
 -4.1563037e-01
 -1.1165109e-01
 -1.9745458e+00
  5.4578549e-01
  2.7942741e-01
  2.2756617e+00
 -8.8593340e-01
  4.6409720e-01
  2.0986968e-01
  4.2784089e-01
 -5.7258481e-01
 -6.5839088e-01
  1.3644379e+00
  1.1173202e+00
 -7.3195499e-01
  3.0917978e+00
  7.6001990e-01
  1.4051087e+00
 -1.1457710e+00
  2.0750804e+00
  1.4653615e-02
 -5.2721596e-01
 -1.2266123e-01
 -5.2527946e-01
 -2.3537719e+00
 -1.2204990e+00
  1.2285365e-01
  4.6640795e-01
 -1.0155476e+00
  2.6588645e-02
 -1.5302728e+00
 -2.0343307e-01
 -6.6883035e-02
 -1.0290203e+00
  9.4387150e-01
  3.0269098e-01
 -1.9781486e+00
  2.2598203e-01
 -2.5120524e-01
  5.4275352e-01
 -5.9737241e-01
 -9.1925460e-01
  8.4004086e-01
 -8.1839073e-01
 -8.7919796e-01
 -1.9883138e+00
  1.1967828e-01
 -2.2022192e+00
 -1.9028779e+00
 -8.0287588e-01
 -3.6711335e-01
  9.3708920e-01
  2.9504672e-01
 -7.6548547e-02
 -1.0581980e+00
 -3.0357897e+00
  3.4811354e-01
 -6.3210964e-01
 -1.0621459e+00
  3.0791599e-01
 -1.3523000e+00
 -6.8919981e-01
 -1.7433177e+00
  6.0442489e-01
 -5.9435040e-02
  8.3968103e-01
 -4.6093947e-01
 -3.8355869e-01
  7.2274290e-02
 -1.8985720e+00
  1.2676150e+00
  9.7561395e-01
 -6.0231853e-01
  7.6698923e-01
  1.6574390e-01
 -2.5071988e+00
  3.7270293e-01
 -1.1367097e+00
  9.5855355e-01
  2.0174646e-01
 -2.2566230e+00
 -8.2868114e-02
  8.1278074e-01
 -5.1924568e-01
  2.2585464e-01
 -1.3796347e+00
  1.2259859e+00
  1.5127760e+00
  4.9474600e-01
 -1.9952537e+00
  2.7538395e-01
  7.9291517e-01
 -1.0621685e-01
 -8.4671962e-01
  4.5096710e-01
 -1.2107718e+00
  3.7711856e-01
  1.0409415e+00
 -1.1613676e-01
  1.3249396e+00
  1.0376626e+00
 -1.2881622e-01
 -1.4823942e-01
 -1.3809122e-01
 -1.9315865e+00
 -5.4943103e-02
 -1.2269115e+00
  1.8510898e+00
 -3.4124053e-01
  2.5141644e+00
 -2.3429163e-01
 -3.6021972e-01
 -6.2284160e-02
 -2.1642102e-01
 -1.9070820e+00
  6.5944785e-01
  2.0708423e+00
  8.2888685e-02
  2.0845897e+00
 -7.2534901e-01
  1.1440338e-01
  5.5196011e-01
 -1.1599424e+00
  2.1028423e-01
  3.3273968e-01
  2.3029058e-01
  1.3609184e-01
 -1.8455962e-02
  3.3035216e-01
 -2.5874772e+00
  9.2166662e-03
  5.3529185e-01
 -1.4559470e+00
  2.1593423e+00
  9.2105478e-02
 -2.4450831e-01
  6.8216956e-01
 -9.9823818e-02
  7.9695153e-01
  2.9993939e-01
  4.1700464e-01
  1.2950597e+00
  1.2639549e-01
  1.4665467e+00
 -1.6251611e+00
  1.7423719e-02
  4.7949749e-01
  1.8220644e+00
 -7.8083163e-01
  3.9253309e-01
 -9.6113577e-02
 -1.4837886e-01
 -4.4281331e-01
  1.3751922e+00
  6.2029719e-01
  1.2588952e+00
 -5.8516091e-01
  6.9793987e-01
 -8.3973998e-01
  5.2472377e-01
 -5.6021726e-01
 -1.0037051e+00
  7.3827147e-01
 -7.6931185e-01
 -2.1790068e+00
  9.0775646e-02
 -4.7856110e-01
  1.9888915e-01
  5.8213753e-01
  7.1743608e-01
  2.8177631e-01
  2.6148435e-01
 -1.3085363e+00
 -3.7179787e+00
  1.9463693e+00
  1.8589739e+00
 -5.8408633e-02
 -1.0406299e+00
 -1.4437734e+00
  1.4031304e+00
 -6.6125169e-02
 -2.2361681e+00
 -9.2492068e-01
  3.6382374e-01
 -1.9061618e-01
  1.2275976e+00
  7.2563928e-01
  2.7971786e-01
  5.8091146e-01
 -1.6136490e+00
 -1.0402266e+00
 -1.1544220e+00
  3.0438027e-01
  1.2423322e-01
 -7.3416388e-01
  2.9349715e-01
 -1.2689840e+00
  5.6806725e-01
  4.1462377e-01
  1.0718014e+00
 -1.5564663e+00
 -8.3534926e-01
 -1.2006364e-01
  6.3833736e-02
 -4.1998643e-01
  2.0642018e+00
 -1.5166119e-01
 -8.6108702e-01
  1.5421337e-01
 -9.1058207e-01
 -3.8119400e-01
 -1.3192343e+00
  4.4154629e-01
 -2.1236518e-01
 -1.1516761e+00
 -3.3470455e-01
 -2.6602006e-01
  3.0095379e+00
 -2.2242625e+00
  8.8305372e-01
  1.3576539e+00
  1.4544293e-01
 -6.8653065e-01
 -8.2290459e-01
  2.5432637e-01
 -1.1582791e+00
  3.6619917e-01
 -8.6001408e-01
 -7.7094901e-01
  4.9681571e-01
  9.8888522e-01
  4.9767599e-01
 -1.1376209e+00
  6.3682997e-01
  7.4508584e-01
  1.5231917e+00
 -1.1907519e+00
 -2.0139298e-01
  1.2284392e+00
 -5.2239305e-01
  1.2380503e+00
  6.9990557e-01
  5.5809265e-01
 -5.1611423e-01
 -8.1897968e-01
 -1.3030943e-04
  6.0834283e-01
 -2.7199444e-01
 -3.5558643e+00
  2.9639408e-01
  2.0713440e-01
  1.5731380e+00
 -7.8979582e-01
  2.0410271e-01
 -1.0251948e+00
  1.7018100e+00
  1.5884331e+00
 -9.5508814e-01
  5.5696744e-01
 -3.3029214e-01
 -5.5195475e-01
 -3.7735108e-01
 -3.7177037e-02
  1.2834240e+00
 -4.1170815e-01
 -6.6305721e-01
 -1.1889515e+00
  2.0902891e+00
  8.5409045e-01
  3.0506306e+00
  1.1268924e+00
  2.7113798e-01
  1.3134668e+00
  1.8299961e+00
  2.2313497e+00
  5.4539436e-01
 -1.6576040e+00
  1.6516246e+00
 -6.3090026e-01
  1.2019612e+00
 -1.4027905e+00
  4.8337188e-02
  2.7244928e-01
 -1.5048524e+00
 -1.0237061e+00
  2.7577180e-02
 -1.1146939e-01
  2.0523237e-01
  1.3387141e-01
 -5.8445436e-01
 -2.2037792e+00
  2.6693326e-01
 -2.0368408e-01
  5.1071799e-01
 -4.2495391e-01
  2.3344936e-02
 -9.8178433e-03
 -1.4700466e+00
 -5.4291403e-01
 -1.2723565e+00
 -1.4400798e+00
  3.2876116e-01
  2.0321536e+00
 -1.8132706e+00
 -2.5359768e-01
  5.4333323e-01
  1.8168045e+00
  3.4098434e-01
 -1.1005943e+00
  2.1623275e+00
  9.3139142e-01
 -1.9447315e+00
  4.3520293e-01
  1.3106422e+00
 -1.8638278e+00
 -2.3644121e+00
 -1.6663922e+00
 -1.0008473e+00
 -6.8291068e-02
  1.0611378e+00
  7.9132658e-01
 -9.0852857e-01
  4.8482731e-01
  4.0271822e-03
  9.3577087e-02
  1.5270478e+00
  3.5472229e-01
  1.6215291e+00
  6.9135070e-01
  1.6854459e-01
 -2.1184249e+00
 -7.7499950e-01
  1.7994104e-01
  1.9604928e+00
  4.9300998e-02
  4.2884503e-02
  2.3862021e+00
  1.8070322e+00
 -3.4071621e-01
  1.5112422e+00
 -9.7071298e-04
  4.2395243e-01
  5.7465905e-01
  1.0745466e+00
 -2.5933251e-01
 -1.8197346e+00
  7.2010356e-01
  3.3679342e+00
  7.6366967e-01
 -1.1640009e+00
  4.6650213e-01
  9.1359448e-01
 -1.1966323e-01
  8.2241756e-01
 -2.4685044e+00
 -1.4292523e+00
  1.8873098e+00
  4.3608618e-01
 -1.8744247e+00
  3.8463221e+00
  1.3896090e+00
 -3.0229217e-01
  1.4091076e-01
  7.7709138e-01
  1.3406330e+00
  7.7009088e-01
  1.0440325e+00
  5.8726513e-01
  1.0330938e+00
 -9.5652789e-02
  1.6987883e+00
  1.1528867e+00
  2.4276688e+00
 -1.1972556e+00
  5.1727426e-01
  4.1143119e-01
  8.7997097e-01
  7.8490210e-01
  2.9351702e-01
  2.9512647e-01
 -2.1879768e-01
 -5.4323632e-01
  1.9203037e+00
  1.2718668e+00
 -2.0236075e+00
 -6.2203556e-01
  1.2543863e+00
 -1.0613889e+00
 -6.9597435e-01
 -7.2547036e-01
  5.2555138e-01
 -1.8379796e+00
  1.9515060e-01
  5.6715548e-01
  1.6975545e+00
 -3.4915376e-02
  2.9568381e+00
 -6.9812536e-02
  3.3783976e-02
  6.2265807e-01
 -1.3845628e+00
  2.0607591e+00
  8.9498055e-01
 -6.9264215e-01
 -1.2804878e+00
 -7.2446311e-01
  9.0819877e-01
 -8.3164144e-01
  6.6655114e-02
 -4.2641017e-01
 -1.4351081e+00
  1.3354105e+00
 -3.6344676e+00
 -6.3816595e-01
  1.6325822e+00
  4.4826370e-01
 -1.8091893e-02
 -1.2077267e+00
  1.2805910e+00
 -1.3548043e-01
  1.4723823e+00
  1.4632700e-01
 -6.8297267e-01
  9.7214484e-01
 -8.6716615e-02
  5.6281942e-01
  1.2464376e-01
 -2.8294238e-01
  6.0173213e-01
 -1.8616597e-01
 -7.8085250e-01
 -1.9683501e+00
 -4.4249985e-01
  2.5871643e-01
  4.7142017e-01
 -4.8160553e-02
  1.0882924e+00
  3.0248914e-02
 -3.8825712e-01
  8.2926035e-01
  1.5140253e+00
 -3.2274553e-01
 -4.5836118e-01
  6.5630507e-01
 -1.0722173e+00
 -7.7234948e-01
 -2.0588689e-02
  3.1685618e-01
 -3.4429729e-01
  4.2470852e-01
 -4.9794495e-01
  9.5955503e-01
  8.0265486e-01
  1.2437155e+00
 -1.4709728e+00
  8.1879103e-01
  8.4426612e-01
  7.5467527e-01
 -1.0465940e+00
  1.2518807e-01
  1.0479021e+00
  4.2825550e-01
  4.4630340e-01
 -8.5815126e-01
 -7.0084149e-01
 -3.5320532e-01
 -1.6159017e+00
 -8.5940027e-01
 -1.3266544e+00
  1.1778730e+00
 -8.1709409e-01
  2.3237872e+00
  4.2736202e-01
  1.9795736e+00
 -1.1400913e+00
 -8.8078544e-02
  3.8817570e-01
 -4.1568205e-01
 -1.5309887e-01
  2.3951884e-01
 -1.4916893e+00
  4.8860249e-01
 -2.1929525e-01
  1.1810079e+00
 -8.5422122e-01
 -2.8678277e-01
  2.2037189e+00
 -6.1111468e-01
 -2.0220275e+00
  7.2583571e-02
  8.8198739e-01
  1.0547256e+00
 -8.6209375e-01
 -1.6080645e+00
  3.2769087e-01
 -6.9656837e-01
  2.0100139e-01
 -8.9815640e-01
 -1.1036444e-01
 -1.2934816e-01
  1.4458761e-01
 -1.6978993e-01
  6.0930145e-01
 -1.1503621e+00
 -8.5503078e-01
  3.6479601e-01
 -3.8712344e-01
 -4.4677609e-01
 -1.9280430e+00
 -1.3598255e+00
 -5.2890861e-01
 -7.9091704e-01
 -1.9786322e+00
  8.1879504e-02
 -1.9281366e+00
  2.2078109e+00
 -8.0804527e-02
  2.1605706e+00
 -1.3251209e+00
  2.8691170e-01
 -1.1838400e-01
  1.9602330e+00
 -5.5205625e-01
 -8.5000622e-01
  5.5765659e-01
  2.3164928e-01
 -1.7368677e+00
 -4.9192330e-01
 -1.1094476e+00
  1.1879997e-01
  3.1016594e-01
  3.3562630e-01
 -6.2002176e-01
  1.0493383e+00
  2.5170666e-01
 -6.2663710e-01
 -2.1727496e-01
 -3.0476770e+00
  5.3361267e-01
 -2.5698659e+00
 -1.5231588e+00
 -2.4289419e-01
 -5.9405339e-01
 -3.2714906e-01
 -1.2329513e+00
 -3.3435318e-01
  2.0442636e+00
 -2.2893016e+00
 -7.8410292e-01
  2.7183561e+00
  5.2500516e-01
 -3.6380190e-01
  8.7472707e-01
  1.4975001e-01
  1.8129851e+00
 -9.5468849e-02
 -2.2849847e-01
  3.8968408e-01
  1.7489924e+00
  1.0651580e+00
  1.9169399e-01
 -2.7199021e-01
  1.4314733e+00
 -7.7521366e-01
  1.8007243e+00
 -8.7929112e-01
 -6.4051956e-01
  2.3718569e-01
  4.0999103e-01
 -6.7847259e-02
 -1.3287195e+00
 -2.2030597e+00
 -1.0882691e+00
 -8.2986653e-01
  2.7341419e-01
 -2.0417066e+00
 -7.3216897e-01
  1.5774189e-01
  8.6498034e-01
  1.2053915e+00
 -1.4169044e+00
  4.0861535e-01
  1.2205594e+00
 -5.7303105e-02
 -2.4324036e+00
  7.1338177e-01
  1.2357569e-01
  3.2145450e-01
  2.4895784e-02
  1.2408980e+00
 -1.4755303e+00
  2.9212388e-01
 -1.3121192e+00
  3.6448386e-02
 -2.9722081e-02
 -3.7769327e-01
 -1.1128380e+00
  2.6374218e-01
 -1.1175725e+00
 -1.6516626e+00
 -2.6908177e-01
 -9.1007978e-01
  8.4986830e-01
  5.6488907e-01
  1.3235712e+00
 -7.6420450e-01
 -3.7825546e-01
  6.1544955e-01
  3.7244443e-02
 -9.7507602e-01
  8.0548286e-02
  9.2242402e-01
 -1.5077350e+00
 -2.0022750e+00
 -1.1180515e-01
 -1.3554587e+00
 -1.2783594e+00
 -1.4240547e+00
 -2.3333812e-01
  3.5816848e-01
  2.4309757e-01
 -4.5009300e-01
 -1.3695520e+00
 -1.0385940e+00
  7.5681746e-02
  2.0499470e+00
  2.9803938e-01
 -1.3002501e-01
 -2.8305998e-01
  3.7789356e-02
  1.8126556e+00
 -1.7865177e+00
 -4.7454724e-01
  9.0290707e-01
 -1.8913776e-01
  1.2848946e+00
 -5.3706241e-01
 -1.2403295e-01
  6.9889098e-01
  1.1209211e+00
  1.7979443e+00
  1.5177625e+00
 -3.7750009e-01
 -2.6000485e-01
 -6.2865186e-01
 -2.8762108e-02
 -1.7046994e+00
  4.9252286e+00
  1.8326150e-01
  3.5736221e-01
 -3.6774714e-02
 -1.3481784e-01
  1.0849619e-01
 -1.6893545e+00
 -1.5195502e-01
 -8.8094795e-01
  9.4191355e-01
  1.0418847e+00
 -4.0006238e-01
 -6.5555280e-01
 -3.2120916e-01
 -6.1751819e-01
 -2.4650706e-02
 -3.6622897e-01
  4.8091009e-01
  2.5241992e-01
  9.4081503e-01
 -3.5114598e-01
  1.7355731e+00
  4.9341600e-02
 -7.0279402e-01
 -1.5095658e+00
  2.0002406e+00
  6.1568242e-01
 -2.9403791e-01
  4.8335212e-01
 -8.7852198e-01
 -8.6483115e-01
 -3.1069539e-02
 -1.0874271e+00
 -7.0019042e-01
  1.9387375e+00
 -2.3038912e+00
  5.1655346e-01
 -1.8542172e+00
 -3.1300700e-01
  1.5524220e+00
 -2.7621350e+00
 -1.6062768e+00
 -1.8861985e+00
 -2.7719235e-01
 -1.8619430e+00
 -3.1744549e-01
 -1.0842134e+00
  3.3103812e+00
 -1.5411416e+00
  1.8481745e+00
 -3.8330849e-02
 -2.4870319e+00
 -6.3364691e-01
  4.6625030e-01
  6.9236439e-01
 -9.0575892e-01
  1.4936116e+00
 -1.5097547e+00
  2.1121204e+00
 -7.4912184e-01
  9.4364697e-01
  4.9864349e-01
  2.9435387e+00
 -4.6621400e-01
 -1.6623050e+00
  1.4489269e-01
 -1.6167846e+00
  9.0986347e-01
 -4.4639379e-01
 -1.8148226e+00
 -6.3360989e-01
 -2.0923669e+00
 -9.1780901e-01
 -4.8118499e-01
  2.3837917e-01
 -1.6494225e+00
 -5.1399273e-01
 -2.4022865e-01
 -4.4191983e-01
 -1.4858471e-01
  1.2991678e+00
  5.4807460e-01
  1.4985323e+00
  1.7210768e+00
  2.9416673e+00
 -9.7731394e-01
 -1.0796471e+00
 -1.6578844e+00
  3.4924445e-01
  1.1547750e+00
  2.4332576e-01
 -4.5560971e-01
  2.1584880e-01
  5.9924841e-01
 -3.5717562e-01
 -2.9279790e-03
 -7.0928383e-01
 -9.9177676e-01
 -1.1485124e+00
 -1.1242536e+00
  1.1017488e+00
 -6.5084070e-01
 -2.1943457e+00
 -3.6479273e-01
 -4.3871897e-01
 -1.0501260e+00
  2.7033094e-01
 -3.3135645e-02
  1.3683257e+00
 -3.6027071e-01
 -1.2434623e+00
  2.2295804e-01
  7.1317792e-01
  6.1022657e-01
 -1.1316887e+00
 -1.1968272e+00
 -2.0299806e-01
 -1.2741249e+00
 -1.1034092e+00
  9.7377825e-01
 -5.7423073e-01
 -8.3052553e-02
 -1.4446753e-01
 -5.2292955e-01
  3.9039752e-01
  7.5092226e-01
 -4.5897436e-01
  1.2361045e-01
  2.0527542e+00
 -9.2833444e-02
  1.1505324e+00
 -2.0584815e+00
 -1.3243433e+00
 -2.8822777e-01
 -7.2181946e-01
  2.0788419e-01
 -6.8048322e-01
  1.4647543e+00
  1.6565157e+00
  5.5192602e-01
  1.7961776e+00
  1.2517715e+00
  9.6192873e-01
 -1.0497278e+00
 -1.0901144e-01
 -9.7508329e-01
 -1.5274429e-01
 -1.6680741e+00
 -1.6798462e+00
  7.4670309e-01
  6.9948575e-03
  6.8881974e-02
  3.8194042e-01
 -9.7137219e-01
 -4.8463801e-01
  2.1562679e+00
 -3.6762622e-01
 -7.8850085e-01
  5.5017436e-01
 -7.7391768e-01
 -2.7993138e+00
  4.6675530e-01
  2.1934447e+00
  1.7837960e+00
 -6.2158215e-01
  1.1101953e+00
  1.6264328e-01
 -3.5728887e-01
  8.5789138e-01
  6.1271852e-01
 -7.6121521e-01
  1.9061239e+00
 -1.7157754e+00
  1.8228050e-01
 -2.4963941e-02
 -7.8066453e-02
  1.4806939e+00
 -2.2966695e+00
  2.1075702e+00
 -1.5903817e+00
 -7.5648355e-01
 -8.4333317e-03
  1.1490357e+00
 -3.3159825e-01
 -1.9400032e-01
  1.9626452e+00
  7.1824890e-01
  2.4453948e-01
 -1.1902274e+00
 -1.1407707e+00
 -8.2156226e-02
  8.6193162e-01
 -4.3654785e-01
 -6.4353973e-01
 -7.3758060e-01
 -1.1040713e+00
  1.4258058e+00
  7.3468679e-01
  1.8245612e+00
 -3.1343496e-01
 -1.6557314e+00
  8.6900121e-01
  2.2561562e+00
  1.2808779e-01
  2.1129450e-01
  2.5706142e-01
 -5.6106788e-01
  1.1215322e-01
  7.0938277e-01
  1.1688818e+00
 -3.1288330e-02
  1.2616142e+00
 -1.0423935e-01
 -1.0262167e+00
 -4.7078925e-01
 -4.8545852e-02
  3.3217263e+00
  1.2309606e+00
  2.9901916e-01
  1.0439756e-01
  2.0147464e+00
 -9.3673861e-01
 -1.3566347e+00
 -1.1354622e+00
  2.0393627e+00
  8.1992537e-01
  7.0229912e-01
 -9.6360922e-01
  2.3888864e-01
 -2.3331247e-01
  1.0487359e+00
 -1.0297003e+00
 -1.4921474e-02
  2.0447905e+00
 -4.0035933e-01
  7.2951049e-01
 -1.0243154e-01
  3.9440605e-01
  1.1808096e+00
 -1.1110326e+00
  8.1281579e-01
  4.4454145e-01
 -1.6768571e+00
 -4.4840279e-01
  5.8323306e-01
 -2.9549953e-01
  7.5926971e-01
  2.0673789e-01
 -9.9318266e-01
 -4.6106055e-02
 -8.1392384e-01
 -6.7045629e-01
 -4.8963967e-01
 -1.7471124e-01
  1.4120046e+00
  3.1864724e-01
 -3.2097915e-01
  6.7113250e-01
 -1.2716258e-01
  6.3668507e-01
  1.1123656e-02
 -2.8941957e-02
  6.8127000e-01
  5.2023250e-01
  2.7344769e-01
  8.8765454e-01
  1.3990681e-01
  1.4589608e+00
 -7.7584487e-01
 -6.1105847e-01
  5.5335552e-01
 -1.6863228e-01
  1.4749616e+00
  2.0045774e+00
 -1.2670596e+00
  7.9451585e-01
 -2.5456014e+00
  1.0264323e+00
 -2.0919156e+00
 -9.2687190e-01
 -1.3780179e+00
  1.4843510e-01
  5.8497876e-02
 -6.7672133e-01
 -2.9593260e+00
  3.4755892e-01
 -8.5537009e-02
 -1.4042259e+00
  1.9078743e+00
 -8.1843323e-01
 -1.2753615e-01
  5.7698822e-01
 -1.0104027e+00
  9.6644109e-01
  4.6738932e-01
 -1.6634423e-02
  1.1391313e+00
 -1.8465313e+00
 -3.8937926e-01
  5.6591105e-01
 -1.0241322e-01
 -4.0696293e-01
 -8.6411726e-01
 -1.3773119e+00
  1.1942240e-01
 -1.0423696e+00
  7.8516459e-01
 -6.4079094e-01
 -1.0134373e+00
 -1.3166693e+00
 -9.6674615e-01
 -7.5236601e-01
  1.7364583e+00
  1.5676883e-01
 -1.6517032e+00
  8.5541451e-01
 -1.5052530e+00
  4.6152914e-01
  1.3981619e+00
  1.7732303e+00
  1.6088386e+00
 -8.3107430e-01
 -1.6077903e-01
  9.0355545e-01
  1.1806636e+00
  1.8074532e-01
  1.5091921e-01
  2.1554351e-01
 -8.6014360e-01
  1.3110614e+00
 -1.8497367e+00
  1.6522431e+00
 -5.6645834e-01
 -1.6390752e+00
 -1.1085452e-01
 -3.8370705e-01
 -1.5937760e+00
  9.4606566e-01
  6.4151555e-01
 -2.5608313e-01
  2.0645990e+00
 -5.9536201e-01
 -3.7019137e-01
 -6.2369072e-01
 -1.7752838e+00
  7.9417157e-01
 -1.3285127e+00
 -2.3009384e+00
  2.0058466e-02
  7.3191053e-01
 -1.8274589e+00
 -9.1485518e-01
  2.4459569e+00
 -2.0675976e+00
 -1.0968519e+00
  4.3777329e-01
 -3.0934834e-01
 -1.4890349e+00
  1.2592931e-01
 -2.0916214e+00
 -2.6958323e+00
  3.7760434e-01
  2.5438276e-01
 -1.7429394e+00
  1.6694483e+00
  2.4671936e+00
 -4.2193809e-01
 -1.2414174e+00
  2.3918962e+00
 -1.4040551e+00
 -4.1901702e-01
 -1.4716862e+00
  2.8963765e-02
 -3.0274525e-02
 -4.4704857e-01
  3.0309486e-01
  1.1157613e+00
  4.8844941e-02
  2.4420305e-01
 -7.1085209e-01
 -6.0731866e-03
 -4.2572528e-01
  1.1108224e+00
 -1.6188546e+00
  3.2224262e-01
 -1.8839586e+00
 -2.2102027e+00
  2.3792596e+00
  2.8091688e+00
  4.1944992e-02
  1.2048481e-01
  3.1735306e-04
 -1.3777747e+00
  4.2737547e-01
  4.1726571e-01
  5.2081633e-01
  1.4645808e+00
 -1.3320259e+00
  1.6496705e+00
 -1.2640594e-01
  9.7134864e-01
 -2.0138576e+00
  1.6609186e-01
 -6.5965492e-01
  3.0569935e-01
 -9.9342465e-02
 -1.2300834e-01
  5.9241503e-01
  9.4159377e-01
 -2.4469361e+00
  2.3617511e+00
  1.0949612e+00
 -4.9586543e-01
 -9.6177697e-01
 -1.9898784e-01
  2.8162031e+00
  9.1284841e-01
  5.1738578e-01
  4.3218866e-01
  7.8068942e-01
  2.0130904e+00
  1.2525630e+00
  1.2023733e+00
 -3.7512374e-01
  5.7469380e-01
  4.6248722e-01
 -2.6885816e-01
 -2.1973228e-01
  6.0811257e-01
  1.0606308e+00
 -4.3246719e-01
  6.9956100e-01
 -8.8103706e-01
 -1.1213288e+00
 -5.8005267e-01
  2.7004001e-01
  1.2191483e+00
  8.0917913e-01
 -2.8248233e-01
  1.9188446e+00
  1.2167060e+00
 -3.6474130e-01
  2.0474296e+00
 -1.2233684e+00
  8.9830172e-01
  1.1148845e+00
 -1.6886892e+00
 -2.0583100e+00
 -3.9095655e-02
 -4.3960646e-01
 -6.0619038e-01
  4.4771254e-01
  2.8175159e+00
 -3.9709294e-01
  8.8227338e-01
 -1.4798149e+00
 -8.0701166e-01
  1.4291172e+00
  1.4252708e+00
  1.7556506e+00
  1.5413418e+00
 -6.2124604e-01
  1.0314663e-01
 -1.2163100e+00
 -1.4818269e+00
  5.8209248e-02
  9.1582465e-01
  2.0345669e+00
 -1.8871514e+00
  1.8440393e+00
 -1.2803295e-01
  8.3074766e-01
  1.5069425e+00
  1.7341895e-01
 -1.0427994e+00
  4.3480960e-01
 -2.5893705e+00
  9.8252040e-01
 -5.3940886e-01
 -2.0285144e-02
 -6.2193018e-01
  4.8087618e-01
  4.2396879e-01
  9.0938747e-01
  8.9010841e-01
  6.3570744e-01
  2.3853669e+00
  7.3915148e-01
  1.2142786e+00
 -6.0124123e-01
 -2.1121671e+00
  1.5174181e+00
  5.5582297e-01
 -1.4099480e+00
 -1.6562963e+00
  1.0391272e-01
 -1.3442572e+00
  1.7976030e+00
  1.5294020e-01
  5.4675114e-01
  1.7320903e-01
  1.1346192e-01
  1.3471276e+00
 -7.7977729e-01
  7.8471226e-01
  2.7208212e-01
  3.8358730e-01
  8.6300850e-01
 -1.9703630e+00
  4.0548515e-02
 -6.5273124e-01
 -1.2392842e-01
 -9.8689324e-01
  4.1832855e-01
  3.5129342e-02
  1.0174595e+00
  4.4369847e-01
 -8.1350392e-01
 -2.0679185e-01
 -2.2501342e-02
 -8.9576840e-01
  4.8749012e-01
  1.8261631e-01
  2.6271546e-01
 -1.2062821e+00
 -5.7502568e-01
  9.5079708e-01
 -2.3288450e-01
 -4.2063496e-01
 -1.8491464e+00
 -3.3435592e-01
 -2.4054587e+00
  1.5080196e+00
  1.6911632e+00
 -4.2239657e-01
 -1.3976540e-01
  1.2847613e+00
  1.0721546e+00
 -1.0619564e+00
 -4.2336863e-02
 -4.3154401e-01
  1.2836339e-01
 -2.8161529e-01
 -5.8730078e-01
 -1.7567315e+00
 -7.4848163e-01
 -3.6555338e-01
 -1.4776628e+00
  1.7439778e+00
 -9.4339084e-03
  5.9131050e-01
  1.1858604e+00
  1.0359612e+00
 -5.1708817e-01
  4.9596584e-01
  2.7096781e-01
 -1.4042255e+00
 -5.3631842e-01
 -7.0676422e-01
  6.0367870e-01
 -1.1171950e+00
  1.6733491e+00
 -3.4387571e-01
 -1.3189871e+00
 -8.7672955e-01
 -1.3426137e+00
 -9.6341097e-01
 -8.6689427e-02
  6.2036812e-01
 -1.8812357e+00
  1.2159377e+00
 -1.0528916e+00
  2.4866507e+00
  3.2082638e-01
  1.7986685e-01
 -4.3098566e-01
 -9.6666487e-03
  2.5407541e-01
 -2.4369035e+00
  6.8335861e-01
  1.5463964e+00
  7.2866505e-01
  8.6937821e-01
 -1.1902655e+00
  8.2633668e-01
 -1.7102652e+00
 -1.6031936e-01
 -5.0694212e-02
  9.6215725e-01
 -2.4175847e-01
 -7.1735394e-01
 -7.2930388e-02
 -2.4692322e-01
  6.9488221e-01
  1.3240390e+00
  8.6314511e-01
  4.6177451e-02
  9.1155553e-01
  8.9621985e-01
  3.3452946e-01
 -7.3950839e-01
  2.1678121e+00
 -3.3178383e-01
  1.4887480e+00
  7.2959423e-01
  1.0824306e+00
 -8.5591090e-01
 -3.8248155e-01
 -7.6461422e-01
 -3.3225989e-01
 -3.0220670e-01
  1.2977574e+00
 -6.8363029e-01
  5.8025461e-02
  1.1983944e-01
  5.6880301e-01
 -6.0511678e-01
  1.9582737e-02
 -9.3518353e-01
  2.5769576e-01
  1.1232175e+00
  6.2237734e-01
 -2.4406460e-01
  1.1809427e-01
 -1.5182433e-01
 -1.9586429e-01
  6.9104290e-01
  3.7462025e+00
  1.1565170e+00
 -5.1617759e-01
 -1.9347326e+00
 -1.5751629e+00
  1.1707536e+00
 -7.8441429e-01
 -2.4503381e+00
 -1.0695870e+00
 -1.2794785e+00
  6.0023371e-02
 -9.9697506e-01
 -8.3655095e-01
  1.9825290e+00
  4.4084445e-01
  1.5244361e+00
 -2.5688097e+00
  1.8651168e+00
  1.1282060e+00
 -3.5318622e-01
  1.5172287e+00
  1.1508703e+00
 -1.6125510e-02
 -1.8559084e+00
  6.1675256e-01
 -2.2238319e+00
 -2.2109878e+00
  5.2771401e-01
  5.4592150e-01
  1.4526144e-01
  1.8070434e+00
  1.5540750e-01
  3.6416434e-02
 -7.0139515e-01
 -9.4732189e-01
  1.3930242e+00
 -5.7713789e-01
 -9.5093232e-01
  4.5280731e-01
 -1.4044992e+00
 -8.5068858e-01
  4.5841274e-01
  6.2292093e-01
  1.6959918e+00
  4.0840083e-01
  1.6747321e+00
  7.2895896e-01
 -6.1853385e-01
 -9.9754006e-01
  7.6800436e-01
  1.0528896e+00
 -7.5468469e-01
  2.9774481e-01
 -2.1087179e-01
  1.0183493e-02
 -1.3462244e+00
 -6.5963811e-01
  8.6870325e-01
  1.1684777e+00
 -1.6147346e+00
 -1.9472584e+00
 -1.3546786e+00
  1.3041665e-01
 -9.2102903e-01
 -3.5021004e-01
 -2.0188883e-02
  2.8621688e-01
  1.4589797e-01
 -6.3491142e-01
  4.2656079e-01
  1.2085549e+00
  2.4576178e-01
 -1.3464588e+00
 -4.5924479e-01
  1.0348376e+00
 -4.6577972e-01
  3.0492470e+00
  9.6136048e-02
  4.0899247e-01
  1.0283276e+00
 -1.2993718e+00
  1.3866049e+00
  2.9850464e-02
 -3.3199760e-01
  3.2510155e-01
 -4.4692043e-02
  1.1192968e+00
 -7.6779383e-01
 -3.8051003e-01
 -7.1795708e-01
  2.6116106e-01
  1.6694388e+00
  8.0050592e-04
  1.6597437e+00
  2.1327927e+00
  2.1291530e-01
 -2.0174212e+00
 -1.1119690e+00
  1.3207649e+00
 -3.9261794e-01
  1.4238696e+00
 -7.5640941e-01
  1.3429397e+00
 -1.7104037e+00
 -2.7571961e-01
 -2.5241468e+00
  5.6228381e-01
  5.1381189e-01
  1.3686664e-01
  3.0958793e-01
 -3.8571343e-01
 -9.9954879e-01
  8.6645818e-01
  1.6219027e-01
 -2.4774484e-01
 -4.1777894e-01
 -8.1003249e-01
 -3.3433712e-01
 -1.4212741e+00
 -2.2812200e+00
  6.5713978e-01
 -1.9770755e+00
 -5.4664239e-02
  1.0103977e+00
 -2.8403947e-01
  7.6851383e-02
 -1.4102985e+00
 -1.8804231e+00
  8.0956852e-01
  2.1014707e+00
  3.4731975e-01
  7.1914479e-02
  4.6388516e-01
 -2.8581175e-01
  2.8426084e-01
 -1.0480049e+00
  4.0540671e-01
 -5.6763786e-01
  2.4640653e-02
 -7.1601696e-02
 -1.2566377e+00
  1.8928279e-01
 -8.0512255e-02
  1.5863136e+00
  9.5546526e-01
 -8.2106620e-01
  7.2922242e-01
 -8.9729130e-01
 -1.3049593e+00
  2.6712513e+00
  1.4811005e-01
  2.7986640e-01
  1.8567226e+00
 -2.6275706e+00
  1.4290208e+00
 -1.8965775e-01
  4.3499067e-01
  1.5541887e+00
  4.3099225e-01
  2.4083233e+00
  3.2183135e-01
 -9.5124996e-01
  6.9006485e-01
  7.3741066e-01
 -5.1827508e-01
 -8.4938511e-02
  5.5780327e-01
  8.7578423e-02
  6.8482119e-01
 -5.2234674e-01
  7.0677900e-01
  1.2291892e-01
  1.6162877e+00
  2.0228500e+00
 -9.4679308e-01
  1.3463042e+00
 -3.9197955e-01
  4.5803052e-01
 -5.6635302e-01
  2.1982929e-01
 -2.1927249e-01
  3.1355524e-01
 -1.0922068e+00
  7.2474736e-01
 -5.1566511e-01
  7.0742577e-01
 -2.6806903e-01
  5.0839192e-01
  6.4714625e-02
  1.1921693e+00
  3.6974034e-01
  7.4149019e-01
  1.9725623e+00
  1.1041820e+00
 -1.0748750e-01
  6.8771727e-02
 -1.7364333e+00
  6.4794624e-01
 -4.9397001e-01
 -1.9211894e+00
 -6.5963745e-01
  7.3157609e-02
  3.8470772e-01
 -9.4991726e-01
  4.5965654e-01
 -7.6086378e-01
 -9.1816878e-01
  1.5371240e+00
  5.9772056e-01
  7.1249664e-02
  2.4479106e-01
  4.2697087e-01
  1.4592602e+00
  1.0339595e-01
 -4.6128219e-01
 -1.0392804e+00
 -3.9886549e-02
  5.2663285e-01
  9.8867327e-01
  1.2250777e+00
  9.4060749e-02
  1.0689260e+00
  3.1933770e-01
  1.4087531e-01
  2.3090639e+00
  1.1045834e+00
  4.8275411e-01
 -9.9198592e-01
 -1.9938066e+00
 -1.6909382e+00
 -4.5394713e-01
  3.9504990e-01
 -4.1590130e-01
  1.1253985e+00
 -1.1456037e+00
 -1.2723973e+00
  6.3974410e-01
 -7.6208854e-01
  5.1733446e-01
 -8.7711346e-01
  1.8751733e-01
  2.4025844e-02
  7.0487893e-01
 -1.4210176e+00
 -1.2772578e+00
 -7.0646793e-01
  6.0529709e-01
 -3.0278108e-01
  1.6769418e+00
  9.9592435e-01
  5.2862084e-01
 -6.6770005e-01
 -8.4355319e-01
  1.5486542e+00
 -8.9101940e-01
  1.3181301e+00
  2.7822020e-02
 -5.0166309e-01
 -1.9763563e+00
 -1.3946668e+00
  6.5639116e-02
 -3.6335382e-01
 -3.3276886e-02
  3.7089771e-01
 -1.0219487e-01
 -2.4319277e+00
 -9.1739567e-03
 -1.8780317e+00
  6.3626510e-01
  1.1141093e+00
  1.4742086e+00
  6.3081014e-01
 -2.8640492e+00
 -7.8166950e-01
  1.7706749e-01
  9.6512210e-01
  2.9326078e-01
  1.2512578e+00
 -2.9122221e-01
 -8.5428911e-01
  6.0630220e-01
  1.2542015e+00
 -1.5612514e+00
 -4.1493908e-01
  1.4503555e+00
  5.9583408e-01
 -1.7488983e+00
 -4.3607473e-01
  8.0447209e-01
  5.6764811e-01
  2.9524931e-01
  6.6636674e-02
 -3.5082793e-01
  3.2919994e-01
 -2.8775233e-01
 -7.7628875e-01
 -1.0249561e+00
  7.9112834e-01
  7.6968789e-01
  5.9382719e-01
 -5.8460557e-01
 -2.2918284e-01
  4.4811629e-02
 -1.0044324e+00
 -1.2641428e+00
 -8.6789185e-01
  1.2901759e+00
 -1.1361914e-01
 -2.1833398e+00
 -3.6707118e-01
  7.7047753e-01
  1.4680195e+00
 -1.1447965e+00
 -1.4381514e+00
  2.4657229e-01
  2.1018450e+00
  2.5172487e-02
  1.3891605e-01
 -1.3843739e+00
  6.3339084e-01
  1.9022624e-01
  7.4367988e-01
 -1.0792495e-01
  7.8203887e-01
 -9.7682402e-02
  1.0580558e+00
 -2.9312737e+00
  8.0116296e-01
 -8.8775977e-02
 -5.7614696e-01
 -3.1957087e-01
  1.8143785e+00
  4.1900571e-02
 -1.1530216e-01
 -3.2919315e-01
 -7.0570278e-01
  5.8091706e-01
  1.7216437e+00
 -3.2770234e-01
  9.4724590e-01
 -1.1633744e+00
 -1.7641380e+00
 -1.5197017e+00
  7.4218601e-01
  1.8863186e+00
 -1.3736441e+00
 -2.4776080e-01
 -4.7428384e-02
 -2.1267888e-01
 -2.7650821e-01
  4.1545162e-01
  9.4361953e-02
  7.0406979e-01
 -2.8960803e-01
 -4.8360476e-01
  1.9680395e+00
 -6.4493376e-01
 -9.4056195e-01
  3.9212421e-02
 -3.3919013e-01
 -2.1106057e-01
  1.8927476e+00
 -2.1139376e+00
  2.0973799e-01
 -6.9991142e-01
 -1.0342932e+00
 -5.1402551e-01
 -1.1179610e+00
  7.6173401e-01
  1.1461207e+00
 -7.2309279e-01
  6.2609088e-01
 -9.2033282e-02
 -1.4393571e-01
  5.3160799e-01
 -1.4797167e-01
  3.1940201e-01
 -8.3402616e-01
  1.5907969e-02
  2.1554716e+00
 -2.0677559e-01
 -7.6509219e-01
 -2.5122064e-01
 -2.5825381e-01
  3.8473141e-01
  1.8135293e+00
  2.1461235e-01
  2.9416052e-01
  7.7717620e-01
 -2.5830454e-01
 -3.2153532e-02
 -9.6587247e-01
  2.0452945e-01
 -7.8044194e-01
  1.0757476e+00
 -1.5245689e+00
  1.7077473e+00
 -8.4170997e-01
 -2.2861230e+00
  6.2574066e-02
 -5.2734238e-01
 -1.2908542e+00
 -5.2720481e-01
  2.4769485e+00
  7.1567810e-01
  4.5493752e-01
  1.3415837e+00
  9.3589567e-02
  1.7667198e-01
  2.1857851e+00
 -1.2961208e+00
  2.4618104e+00
  3.3247983e-01
 -3.8321614e-01
  1.8334935e+00
 -1.3513777e-01
 -1.3959533e-01
 -2.1257389e-01
 -1.0340323e+00
  1.1142169e+00
  1.2393700e-01
 -1.1760279e+00
  7.7125216e-01
  2.4719776e-01
  1.2006170e-01
 -3.7476334e-01
 -2.5733089e-01
 -1.3486668e+00
  1.2937418e+00
  1.1355634e-01
 -6.3893747e-01
  2.9701322e-01
 -1.4747645e+00
  1.4596024e+00
 -1.4768733e-01
  5.7230347e-01
 -3.5282570e-01
  7.4855900e-01
 -9.5236695e-01
  1.5308508e+00
 -2.1607468e+00
  2.5511599e-01
 -4.4902098e-01
 -3.0207363e-01
  1.0077151e+00
 -4.4469029e-01
  1.5063076e+00
 -3.5220009e-01
 -1.3518887e+00
 -4.0062752e-01
  1.4620469e+00
  1.7653109e+00
 -1.9535008e-01
 -4.2546600e-01
  1.1378453e+00
 -1.0213839e+00
  3.1869292e-02
  3.1869292e-02
  3.1869292e-02
  3.1869292e-02
  3.1869292e-02
  1.6477494e-01
  1.6477494e-01
  1.6477494e-01
  1.6477494e-01
  1.6477494e-01
  2.7727848e-01
  2.7727848e-01
  2.7727848e-01
  2.7727848e-01
  2.7727848e-01
  5.7773978e-02
  5.7773978e-02
  5.7773978e-02
  5.7773978e-02
  5.7773978e-02
  6.7560442e-02
  6.7560442e-02
  6.7560442e-02
  6.7560442e-02
  6.7560442e-02
  5.0816953e-01
  5.0816953e-01
  5.0816953e-01
  5.0816953e-01
  5.0816953e-01
