nep4 3 S Mo Ni 
cutoff 8 4 78 21
n_max 4 4
basis_size 8 8
l_max 4 2 0
ANN 30 0
  1.3034743e-01
  2.1303654e+00
 -8.8955127e-02
  6.7364641e-02
  1.3266298e+00
  3.3824185e-01
 -2.0394090e-01
  1.5197512e+00
  2.7668533e+00
  1.1143032e+00
  1.5876657e+00
 -1.2413142e+00
  6.4130920e-01
  1.0921726e-01
  2.3060055e+00
  3.8859981e-01
 -1.2726320e+00
 -1.3445194e+00
 -1.4784620e+00
  1.4817987e-01
  4.8534897e-01
 -2.8342336e-01
 -7.4092007e-01
  8.6279351e-01
 -6.6228974e-01
 -1.2179275e+00
 -8.6694187e-01
  6.3495910e-01
  1.3455129e-01
 -1.2334396e+00
 -1.3721650e+00
  9.2784464e-01
  2.3171875e-01
  1.4462823e-01
  1.8766469e+00
  1.8843915e-01
 -1.0709112e+00
 -1.0586051e-01
  8.3415240e-01
 -7.9782891e-01
 -8.2293659e-01
 -3.5155776e-01
 -6.4840984e-01
 -7.4458325e-01
  3.8011181e+00
 -1.2275153e+00
  6.3533813e-01
  1.1816393e+00
  4.6698737e-01
  7.9313582e-01
 -5.8612281e-01
 -2.3800139e+00
  2.3903975e+00
 -1.3821405e+00
 -1.0419394e+00
  1.3224319e+00
 -1.1606117e+00
  9.5248824e-01
 -4.8688379e-01
 -1.4802281e+00
 -9.5539290e-01
  1.8740755e+00
  2.5290039e+00
 -8.0336452e-01
 -1.1178173e+00
 -8.2060093e-01
  2.1037453e-01
  1.2440276e-01
 -9.7351927e-01
  1.4276586e-01
  5.4801774e-01
  5.1061916e-01
 -1.3242502e+00
 -2.0225172e+00
 -5.3496653e-01
 -6.6558498e-01
  3.8557765e-01
 -7.4293774e-01
 -1.3375989e+00
 -1.7016593e+00
  1.1230494e+00
  1.2167037e+00
 -1.2314556e+00
  2.5268972e+00
  3.4875536e-01
 -1.0914290e+00
 -2.3955297e-01
 -1.5845549e-01
  1.7711449e+00
  9.2349321e-01
 -5.7391667e-01
 -1.5032487e-01
 -4.2048350e-02
 -3.2374752e-01
 -6.2821582e-02
 -1.2303820e+00
 -1.1820457e+00
  1.5271870e+00
  1.8572041e+00
 -4.9315122e-01
 -1.3683829e+00
 -5.3226697e-01
 -3.0873173e-01
  1.0047428e-01
  7.2583586e-01
  1.4150895e+00
  3.9042059e-01
  6.8508476e-01
  1.8690655e-01
  2.8885981e-01
 -2.6627797e-01
  2.0642276e-01
  1.7433389e+00
  1.1716355e+00
  2.5128958e-01
 -2.5898969e-01
  1.8051190e+00
 -1.4333956e+00
 -7.1689737e-01
 -1.0906568e+00
  5.8737385e-01
 -4.0805930e-01
 -8.0516088e-01
  9.7763020e-01
  1.8901654e-01
  3.9880526e-01
 -7.9051721e-01
  5.8573687e-01
  2.3193047e+00
  1.9869454e-02
 -1.3073115e+00
 -1.1753143e+00
 -2.7748454e-01
  1.0855714e+00
 -3.4658568e+00
 -2.1392245e+00
  8.1195164e-01
 -1.4099895e+00
  1.4580793e+00
 -7.1204764e-01
  2.4754570e+00
 -1.2084969e+00
 -2.2891300e+00
  9.1693503e-01
  2.9098201e-01
 -8.3935630e-01
  1.2315109e+00
 -1.4577775e+00
 -5.0227457e-01
  8.8925982e-01
  1.1052938e+00
  4.1896245e-01
  2.3261949e-01
 -1.2065668e+00
 -1.3757899e+00
  6.8834800e-01
 -6.5100920e-01
  1.0398970e+00
 -1.0187172e+00
 -7.6508904e-01
  1.5459577e+00
 -4.0874395e-01
 -1.4658190e+00
  5.9641182e-01
  1.0844741e+00
  5.6738746e-01
  1.8431802e-01
 -4.0962479e-01
 -1.1672513e+00
 -1.4729508e+00
  4.4914642e-01
 -1.1595034e-01
  3.5984857e+00
  9.6337730e-01
 -7.3725140e-01
 -2.4034483e+00
  1.8822924e+00
 -2.5037832e+00
  2.8751926e+00
  4.9262589e-01
  2.6411111e+00
  2.7792509e+00
  3.9508730e-01
 -1.0261741e+00
 -2.1285923e-02
  9.3229955e-01
  1.1967829e+00
  1.5282876e+00
 -2.0829730e-02
 -7.2057448e-02
 -6.6363996e-01
 -3.3661425e-02
  7.2297674e-01
  2.9385304e+00
  1.0008655e-01
 -3.2267129e-01
  1.7118617e+00
  2.8835297e-01
  1.1709020e-01
 -7.2502363e-01
  5.5311775e-01
 -2.9985183e-01
  7.7683650e-02
 -1.8308087e-01
 -3.5213855e-01
  1.4222200e+00
 -1.0609350e+00
  2.3154454e+00
  3.5141310e-01
  8.5402064e-02
 -6.9222033e-01
  1.4176551e+00
  3.9341080e-01
 -1.4999545e+00
  1.5588334e+00
 -6.3104469e-01
 -8.5643375e-01
  3.0403063e+00
 -1.5358853e+00
 -2.2477734e+00
  1.2895238e+00
  2.1073109e-01
 -7.8262961e-01
 -1.5257268e+00
  1.1304784e+00
 -1.5884398e+00
 -1.6373992e+00
 -4.2932069e-01
 -1.5036647e+00
 -6.1007094e-01
 -8.7707067e-01
 -7.3382735e-01
 -2.1961148e-01
 -2.8595769e-01
 -1.6026846e-01
  2.1535058e-01
 -1.1394784e+00
  2.1288675e-01
  1.1770360e+00
  1.9721893e+00
  1.5417922e+00
  9.0592659e-01
  7.1466649e-01
  4.3478984e-01
  1.2998892e+00
  3.9902809e-01
  5.4112202e-01
  5.9534848e-01
  1.0811725e+00
  4.1769889e-01
  4.1912076e-01
  1.0348738e+00
  9.1871732e-01
 -1.4253113e-01
  2.7956766e-01
  4.5869717e-01
 -6.1116648e-01
 -1.2016727e+00
 -4.6547130e-01
  9.5676923e-01
  7.8246081e-01
 -1.0282970e-01
 -7.5612193e-01
  2.7528483e-01
 -8.9246529e-01
  1.1694372e+00
 -4.4637495e-01
 -2.0840793e+00
 -1.5256699e+00
  1.3614555e-01
  1.3352033e+00
  1.5361378e+00
  1.7992115e+00
 -1.4239774e+00
 -3.1941006e-01
 -2.9308793e-01
  2.5032074e+00
  3.6554292e-01
 -2.1161344e+00
  1.3498561e+00
  3.6394775e-01
 -3.1911555e-01
  1.1366231e-01
  3.4970772e-01
  2.4153066e+00
 -1.9053004e+00
 -6.8337329e-02
 -3.5934874e-01
 -5.0032264e-01
 -1.0753006e+00
  5.4861575e-01
  9.4700032e-01
  1.7299254e-01
  3.1572923e-01
  1.1486336e+00
  1.9598018e-01
  1.3285708e-01
 -1.1537791e+00
 -4.9410862e-01
  9.4141060e-01
  1.1212023e+00
 -1.5918019e+00
 -1.5394855e+00
 -6.7046595e-01
  4.4246584e-01
  9.1451907e-01
 -4.6824983e-01
 -6.9623552e-02
 -3.1946456e-01
 -8.5244656e-01
  1.4861102e+00
  8.7968481e-01
 -7.7557379e-01
  9.6284574e-01
  7.7142853e-01
 -1.0974324e+00
  3.6038035e-01
  1.8137692e-01
  1.2333577e-01
  1.0158772e-01
  1.2332071e+00
 -1.2073792e+00
  3.0158606e-01
  4.8148745e-01
 -2.9097569e+00
 -3.8396111e-01
 -2.2872949e+00
  3.7154400e-01
  2.3781188e+00
  1.4267818e+00
 -6.2862021e-01
  4.0348333e-01
 -4.4945467e-01
  8.5151494e-01
 -2.6354508e+00
  7.6981956e-01
 -4.0012899e-01
  1.3980122e+00
 -1.7722335e+00
 -5.9433408e-02
 -1.0014129e+00
 -2.4829829e-01
 -1.5886368e+00
  1.4611065e-01
 -5.7921523e-01
 -1.4561707e-02
  2.2195618e+00
  1.8764850e+00
 -1.2722344e+00
 -5.6399733e-01
  3.0007184e-01
  6.0705703e-01
 -9.2143661e-01
  4.2361221e-01
 -1.8225598e-01
  1.3366928e+00
 -1.6226579e-01
 -5.2670777e-01
  1.7894598e+00
 -9.5058221e-01
 -1.5237579e+00
 -5.1223689e-01
 -3.2115388e-01
  4.0399140e-01
  7.0032245e-01
  1.3586364e+00
 -1.0437495e+00
  6.2934920e-02
  1.0493401e+00
  1.1120132e+00
  1.1424122e+00
  2.4734011e+00
  6.9701731e-01
  1.1700978e+00
  6.7346168e-01
 -1.1267400e+00
 -1.1605952e-02
  1.2064103e+00
  1.3086228e-01
 -1.1836385e+00
  2.7860272e+00
  7.2995707e-02
  1.7467666e+00
  2.6059297e-01
 -1.1190654e+00
 -2.8798664e-01
 -8.1602061e-01
  1.4977319e+00
  4.1314262e-01
  2.1254666e+00
  1.8352832e-01
  1.2394162e-01
  1.4245789e+00
  2.3312345e+00
  1.9123130e+00
 -4.9554709e-01
  4.8912060e-01
  7.6662213e-01
 -6.6814864e-01
 -4.1325593e-01
 -1.7707439e-01
  3.3732668e-02
  1.9788009e-01
 -7.3072076e-01
  5.6632042e-01
  2.2294893e+00
  8.1983966e-01
  1.6883998e+00
  2.3419552e-01
 -6.4204752e-01
 -1.2610074e+00
  4.9446341e-02
  4.2837936e-01
 -2.3937559e+00
 -3.7221751e-01
  6.6138849e-02
 -1.2791079e+00
  4.0322828e-01
  3.3471066e-01
  1.4525408e+00
 -1.1708927e+00
  3.8036533e-02
  1.0116463e+00
  1.6322364e+00
  1.1070520e+00
 -1.9223715e-01
 -1.4103109e+00
  7.0859414e-01
  1.6256166e+00
  7.5813925e-01
  1.3271537e+00
 -1.2228298e+00
  6.4182413e-01
 -1.8606301e-01
  1.8074000e+00
  5.9129250e-01
  1.6550841e+00
 -5.5496043e-01
 -2.0604587e+00
 -8.9208233e-01
  9.1351420e-01
 -1.1455518e+00
 -1.1325079e+00
  2.9936698e-01
 -1.4463286e-01
 -1.3244027e+00
 -3.3148515e+00
 -1.4704078e+00
 -8.9177531e-01
  3.1343002e+00
  2.6355956e+00
 -4.4916995e-02
  3.7209401e-01
 -9.2186296e-01
  1.6382798e+00
  2.5136220e-01
  2.9669268e+00
 -1.8552248e+00
  2.4091956e-01
  9.1737765e-01
 -1.3477201e+00
 -2.1251554e+00
  2.0408549e+00
 -2.9811906e-02
  1.1209527e+00
  3.1470701e-01
  2.9142158e+00
 -2.2822647e+00
  9.3853360e-01
  2.2833337e-01
  1.2368730e+00
  1.2095692e-01
  1.8084249e+00
  4.5632991e-01
  4.7891024e-01
 -1.0697249e+00
 -4.4081426e-01
  7.2463620e-01
  1.3327751e+00
  7.5488329e-01
  8.3518022e-01
  5.5901086e-01
 -5.0349522e-01
 -3.2843572e-01
  5.0714576e-01
 -1.7631031e+00
 -3.2204297e-01
  2.4748638e-01
 -2.7471745e+00
 -7.9783773e-01
  1.2705069e+00
 -1.1699129e+00
  3.7348008e-01
  3.2054749e-01
 -9.0572006e-01
  1.0575300e+00
 -7.2865260e-01
 -1.0466278e-01
  6.4084506e-01
 -5.5170560e-01
  8.9041984e-01
  5.8560961e-01
  1.7684199e-01
  1.7925051e-01
 -2.7633858e-01
 -2.1592987e-01
 -5.7643121e-01
  4.2266291e-02
 -3.5716876e-02
 -2.4000738e+00
 -7.0443583e-01
 -1.2028959e+00
 -7.5964704e-02
 -9.2293888e-01
 -3.9860737e-01
 -7.7508014e-01
 -1.4321858e+00
  8.0333954e-01
  8.2066172e-01
 -1.4482856e-01
 -1.1368881e+00
  7.5516611e-01
 -1.7383602e+00
  5.1682389e-01
  4.0793461e-01
 -4.5812398e-01
 -2.0359504e-01
 -9.1164249e-01
  4.8243254e-01
  3.0055353e-01
 -1.7273602e+00
  1.0968838e+00
 -1.5207627e+00
 -2.1727772e+00
 -2.2366747e-02
  8.6237830e-01
 -1.5575020e-01
  3.7710294e-02
  8.1845984e-02
  2.2604778e+00
 -1.2240781e-01
 -9.9625087e-01
  1.9181445e+00
 -1.7502407e+00
  1.9481671e+00
 -1.4129351e-01
  4.1341576e-01
  4.9447259e-01
 -1.7530040e+00
  1.7244918e+00
  6.9205308e-01
  1.8036243e-01
 -1.1948760e+00
  1.3604131e+00
 -4.5187843e-01
 -1.5825804e-01
 -1.1698704e+00
  8.2728231e-01
 -2.0904274e+00
  4.3086672e-01
  8.1162488e-01
 -7.2629815e-01
  7.8538889e-01
  2.3423916e-01
  1.4482180e+00
 -2.6837128e-01
 -3.6862734e-01
  7.1850520e-01
 -4.6030554e-01
 -1.2980881e+00
 -7.9853672e-01
  1.5347487e+00
 -9.7115427e-01
  6.5012103e-01
  1.1542948e+00
  5.1637137e-01
  6.9579202e-01
  2.3249027e-01
 -1.4796261e+00
  1.5362039e+00
 -1.7493025e+00
  6.6595846e-01
 -8.0988842e-01
 -3.6063549e-01
  4.6369165e-01
 -3.7787771e-01
  4.0094754e-01
 -1.0869708e+00
 -9.4388545e-01
  2.0246258e+00
 -7.5602680e-01
  9.2409456e-01
  1.5406411e+00
 -5.5308707e-02
  6.6363990e-01
 -1.4284840e+00
 -3.8697016e-01
  5.8980131e-01
 -1.4528683e+00
 -8.3226442e-01
  3.6302403e-01
  6.6640204e-01
 -5.6138968e-01
 -7.3076719e-01
 -1.1696761e+00
 -2.4485977e-02
  1.9264491e+00
 -1.0482056e+00
  5.1636577e-01
 -9.7690803e-01
  3.5992274e-01
 -1.1492283e+00
 -1.8864632e+00
 -1.6359116e+00
 -2.7827339e+00
  1.3567636e+00
 -5.7308602e-01
 -3.4311559e+00
  1.3519301e-01
 -1.8190848e+00
  2.8784020e+00
 -1.0388221e+00
  2.2189792e-01
 -3.3238378e-01
 -1.2860863e-01
  9.0955538e-01
  1.5560915e+00
 -4.4267881e-01
  1.0783341e+00
  9.8593807e-01
 -7.7387351e-01
  2.3721510e-01
  2.3163140e-01
  2.9674497e-01
  1.0562199e-01
  2.1486649e-01
 -2.3849690e+00
  1.3303956e+00
 -1.7072104e+00
  1.8000509e+00
  5.0094062e-01
 -7.0391828e-01
 -3.4770223e-01
 -1.2324220e+00
 -9.8460484e-01
  5.5401784e-01
 -1.9143249e+00
  5.5871725e-01
 -4.9560374e-01
  1.0385352e+00
  1.4296020e+00
  2.0961073e-01
  2.4904855e-01
  1.1795639e+00
 -2.0445089e-01
  1.2095482e+00
  8.8336688e-01
 -1.1471193e+00
  7.8593123e-01
  6.1316717e-01
 -1.5413476e+00
  1.1431708e+00
 -1.3001709e+00
 -4.1353881e-02
 -1.9928974e+00
  1.3865304e-01
 -1.1152190e+00
  9.3817908e-01
 -2.9525682e-03
  8.9714134e-01
 -9.3372452e-01
  1.6588515e+00
 -1.9333876e+00
 -1.5377944e+00
 -9.8072702e-01
 -2.2368264e+00
 -4.1256180e-01
  8.3199181e-02
 -1.8029348e+00
  6.7817336e-01
 -2.0036650e+00
 -2.4272670e-01
 -9.9514586e-01
 -1.2534624e+00
 -1.1958369e+00
 -2.4494312e+00
  1.6617674e-01
 -3.7442014e+00
 -8.2873285e-01
 -1.9364077e+00
 -5.3455943e-01
  5.1693958e-01
  1.7150191e+00
  7.3293471e-01
  4.0270561e-01
 -2.5470260e-01
  6.9075757e-01
  4.2042900e-02
  1.4304273e+00
  1.1940765e+00
 -6.1234295e-01
 -1.2516344e+00
 -8.2639508e-02
  2.8226727e-01
 -6.2436658e-01
  3.1682503e-01
 -2.3634090e+00
 -5.0047171e-01
 -1.3195294e+00
 -3.8732257e-01
  2.7902114e-01
 -1.9140877e-01
  9.3788838e-01
 -2.1406133e+00
  2.1710366e-01
  6.5676016e-01
 -7.7039057e-01
 -3.3153963e-01
  1.8679210e+00
  2.3594489e+00
  3.6586371e-01
 -2.5574834e+00
  6.8515438e-01
  5.6694943e-01
 -1.0421959e+00
  8.9360440e-01
 -1.3243780e+00
 -9.3422495e-02
 -4.1939002e-01
  8.0469954e-01
 -1.5761343e-01
 -4.2067956e-02
 -5.8814460e-01
 -3.9668366e-01
  1.3331798e-01
  2.6151741e-01
  3.6304464e+00
  1.1415379e+00
 -1.1789638e+00
 -2.8926429e-01
  6.4664811e-01
  8.4275222e-01
  1.2778522e-01
 -2.8636697e-01
  7.1944046e-01
  5.1902942e-02
  2.6096490e-01
  8.0523437e-01
  2.2053141e-03
  1.6327051e+00
 -1.3296047e+00
  8.5673308e-01
 -5.5409086e-01
  1.6361847e+00
  1.4282539e-01
  4.9335487e-02
  2.6595667e-01
 -2.2411977e-01
  1.0279344e+00
  9.9338032e-02
 -3.6954939e-01
 -1.3662518e+00
 -1.9092411e-01
 -1.3892484e-01
  2.6561880e-01
 -6.6401772e-02
  1.3735644e+00
 -3.5736087e-01
  1.1484815e+00
  5.6673843e-01
  2.6130953e-01
 -1.9153839e+00
 -3.1999759e-02
  2.0647044e+00
 -1.2838615e+00
 -4.3579742e-01
  1.9100132e+00
 -3.3648845e-02
 -1.9467686e+00
 -6.9536310e-01
  2.9558021e-01
 -1.0310969e+00
 -6.6992760e-01
 -8.0964798e-01
  1.8581338e-01
  2.1999013e-01
 -8.5158539e-01
  1.8703960e-01
  1.5658896e+00
 -1.7786774e-01
 -1.3162781e-01
  1.5029672e+00
 -1.2335602e+00
  1.6735423e+00
 -1.5459415e-01
  8.5567647e-01
 -3.3247280e+00
  2.4280304e-01
 -5.7748175e-01
 -7.1953304e-02
  3.8694382e-02
  4.1938749e-01
 -1.9424857e+00
 -5.9438324e-01
 -2.1659148e-01
  7.8317183e-01
  9.9901848e-02
  1.2863122e-01
 -2.6000598e-01
  1.6514723e-01
 -1.0228221e+00
  9.6498400e-01
  9.2271209e-02
  1.0460244e+00
 -9.9172878e-01
 -1.2092891e+00
 -3.0905518e-01
  1.6987576e+00
 -2.0357611e+00
  4.8844546e-01
  4.4121701e-01
  3.7948155e-01
  9.0690935e-01
 -1.8237298e+00
  7.8331947e-01
  6.9802350e-01
  2.1218638e-01
 -4.2775863e-01
 -5.3138131e-01
 -1.8222843e-01
 -2.4318516e+00
  8.3843619e-01
  7.5262129e-02
  2.1108422e+00
  7.9732738e-02
 -3.0749638e-03
 -5.3478557e-01
 -8.6129016e-01
  1.1087151e+00
 -2.1936077e-01
  3.9507240e-01
  3.8757235e-01
 -7.5185484e-01
 -1.4562464e+00
 -3.8230717e-01
  9.2555416e-01
 -4.8954627e-01
 -5.4253674e-01
  2.1261683e+00
  1.6612152e+00
 -7.1848917e-01
  2.3034036e+00
  1.2974405e+00
 -1.0539482e+00
 -1.4592547e+00
  2.1468791e-01
  1.1464769e+00
  6.3594989e-02
 -1.1485688e-01
 -1.2392012e+00
  8.2967985e-01
 -5.4031366e-01
  6.5241933e-01
 -8.4703875e-01
 -1.3663318e+00
  6.5455532e-01
  3.9022896e-01
  2.8794706e-01
  1.5709887e+00
  9.2617989e-01
 -1.2746307e+00
  1.0709350e+00
  7.6771843e-01
  7.2755259e-01
  7.3838376e-02
 -7.6262784e-01
 -9.4919018e-03
  3.4561008e-01
 -3.7870684e-01
  2.8021246e-01
 -3.8620628e-02
 -4.4968921e-01
  5.8857240e-03
 -3.7205543e-02
 -6.2796997e-04
 -9.6881598e-01
  1.7771569e-01
  7.9938012e-01
 -1.9441561e+00
  8.7529719e-01
 -5.0310022e-01
  1.8651226e+00
 -1.5422369e+00
 -8.5130125e-01
  1.9729013e+00
  4.3746936e-01
 -1.1880116e+00
 -6.1845255e-01
  1.5568672e+00
 -1.6879548e+00
 -1.1197010e+00
 -1.3747256e-01
  8.2774222e-01
  2.0689909e+00
 -3.3435979e-01
  1.3769001e+00
  1.4688979e-01
  2.9400966e-01
  2.2210608e+00
  1.2485243e+00
 -7.2200054e-01
  4.6456566e-01
 -7.5270668e-02
 -7.5523359e-01
 -1.3155587e+00
 -1.8369304e+00
  1.5273753e+00
 -2.3965762e+00
 -2.0863323e+00
  5.2798074e-01
  1.2813478e+00
  4.3785244e-01
  1.5818094e+00
 -1.2608776e+00
 -3.2003021e-01
 -1.7616496e+00
  2.6857963e+00
  7.7421415e-01
  5.2514261e-01
 -3.4142661e-01
 -4.7269773e-01
 -5.6073695e-02
 -1.3230835e+00
 -1.2185526e+00
 -9.8520803e-01
  8.4386897e-01
 -3.7508869e-01
 -7.5999282e-02
 -2.4232412e-02
  5.7891279e-01
 -6.6882557e-01
  5.0843352e-01
  1.6728549e-01
 -9.0444870e-02
  2.7530521e-01
 -8.6987263e-01
  3.1261876e-01
  1.9346566e-01
  3.4589294e-02
  9.9118404e-02
 -9.9220908e-01
 -6.4070594e-01
 -3.3991662e-01
 -7.4839646e-01
  9.8718667e-01
 -5.6498263e-02
 -1.5752715e+00
  4.4304550e-01
 -3.0067885e-01
  3.9989057e-01
 -7.5693226e-01
 -9.2363113e-01
  6.6079438e-01
 -1.0344143e+00
  1.3264941e+00
  4.4020548e-01
 -4.2592111e-01
  1.4380049e+00
  8.9590305e-01
 -1.7986177e+00
  1.1769859e+00
 -6.1867839e-01
  1.0339551e+00
 -1.9629476e+00
 -7.0440918e-01
  5.3756124e-01
 -1.4535233e+00
  1.4193802e+00
  3.0040634e-01
  4.9079174e-01
  1.5787388e-01
  1.9642841e+00
  2.5090978e+00
 -5.4641175e-01
  8.6590755e-01
 -1.0952502e+00
 -4.7449103e-01
 -3.7928325e-01
  2.9264155e-01
  7.0859484e-02
 -7.2963762e-01
 -4.4041738e-01
  2.3127866e+00
  1.2585534e+00
 -3.9782688e-01
 -7.3339216e-02
 -2.2930272e+00
  4.9935840e-02
  1.3940786e-01
 -8.8710152e-02
 -1.5688361e+00
  1.4947761e+00
 -4.9682778e-01
  6.6889006e-01
  8.8202614e-01
 -2.0289680e-02
  1.3878046e-01
 -2.7531316e+00
 -2.2365494e+00
  1.3438600e+00
 -8.3635825e-01
  1.4548523e+00
  1.0904725e+00
 -2.2966748e-01
  1.0582657e+00
 -8.6972982e-02
  3.9169517e-01
 -1.9762968e-01
 -9.9019575e-01
 -4.9190885e-01
 -8.3880240e-01
  5.3797507e-01
  2.0317246e-01
  5.0518453e-01
 -1.1274270e+00
 -6.3732006e-03
 -7.1119078e-02
  3.5454670e-01
  7.4749666e-01
 -4.8451617e-02
 -1.6346945e-01
 -5.0493214e-02
 -1.8039545e+00
 -1.9399420e+00
 -1.8223070e-01
 -8.3766234e-01
  3.6329079e-01
 -1.5794308e+00
  2.2072146e+00
 -1.0340519e+00
  7.4329233e-01
 -9.8766971e-01
  4.1962203e-02
 -1.6172287e+00
  1.4786829e+00
 -1.2093012e+00
  8.7224782e-01
  1.5200515e+00
 -1.8723289e+00
  6.9246566e-01
  3.8993709e-02
 -3.4130204e-01
  2.1872106e+00
  9.3151486e-01
  4.5045026e-02
 -4.9885049e-01
 -9.5230675e-01
 -2.1978442e-01
  4.8770931e-01
 -8.5107774e-01
  2.8319818e-01
 -2.0540702e+00
 -2.9038855e-01
  5.5223799e-01
  1.0311464e+00
 -7.0208782e-01
  1.4850427e+00
 -6.3751203e-01
  6.8044615e-01
  9.9823099e-01
  1.0323902e+00
  1.7855097e-02
 -9.5601428e-01
  1.7130643e+00
 -1.5340261e+00
 -8.4917730e-01
  3.0322363e+00
  1.6772203e+00
  1.2798171e+00
  1.4983290e-01
 -2.9004045e-02
  2.5519679e+00
  6.7491519e-01
 -1.5081961e+00
 -1.7723379e-01
 -1.7869284e+00
 -5.6268376e-01
 -1.3419455e+00
 -6.2080634e-01
  7.7734792e-01
 -3.9642462e-01
  1.3590589e-01
 -2.7143865e+00
  4.6793315e-01
  1.2377323e-01
  9.0324467e-01
  1.0542433e+00
  5.1159930e-01
 -1.5125995e+00
  1.3512754e+00
  5.1103097e-01
 -4.9287063e-01
 -2.1457646e+00
 -1.4243616e+00
  2.0304827e-01
 -1.7879836e-01
  6.0092396e-01
  2.5817783e+00
  1.3010553e+00
  1.6993531e+00
  1.1572418e+00
  4.3134061e-01
  7.0930481e-01
  2.1787673e-01
  6.3169414e-01
  1.0574014e+00
 -2.0324793e+00
  1.4012603e+00
 -1.9612900e+00
  2.8068197e-01
 -9.2000544e-02
  3.2475424e-01
 -1.6290197e+00
 -3.5542834e-01
 -2.4444708e-01
 -2.7462273e+00
 -2.4084677e-01
  5.3533494e-01
 -7.3278046e-01
  4.9304184e-01
  4.4377738e-01
 -2.6875992e+00
 -2.2815306e+00
 -4.3404156e-01
  2.7483800e-01
 -1.3995713e+00
 -1.5312929e+00
 -1.2649426e+00
  1.0912726e+00
 -7.6805562e-01
  7.1941799e-01
  8.7305725e-02
  9.3048894e-01
  1.1014805e-01
 -1.1474842e+00
 -2.2281490e-01
 -4.0814340e-01
  1.3618102e+00
 -1.3751237e+00
 -7.5077343e-01
  5.5294502e-01
 -4.6602857e-01
 -9.7443509e-01
 -1.3921148e+00
  4.5985019e-01
 -9.9818885e-01
  1.9125866e+00
  5.2136555e-02
 -3.5985407e-01
 -1.1884170e+00
 -9.7450066e-01
 -8.8011730e-01
 -3.5537217e-02
  1.6198519e+00
  3.9384633e-01
  4.6917570e-01
  4.8158360e-01
  4.2757890e-01
 -6.2238181e-01
  3.7695619e-01
  4.3462044e-01
 -2.9923475e-01
  8.7208354e-01
  1.0587418e+00
  3.4543103e-01
  2.8400886e+00
  1.4353347e+00
 -1.0455021e-01
 -2.4007098e-01
  7.4573815e-01
  6.1096889e-01
 -1.9383494e-02
 -1.4255195e+00
  6.4144112e-02
  3.8330960e-01
  1.9693197e-01
  1.7695364e+00
 -4.9557775e-01
 -1.3931642e+00
  4.4432050e-01
  3.0197144e-01
  1.0973619e+00
  3.0670261e+00
  4.2551020e-01
  4.5103139e-01
 -4.3668024e-02
 -2.1707778e+00
  6.6104084e-01
 -5.3900611e-01
  1.4538654e+00
 -2.1780175e-01
  1.6909952e-01
  1.5944993e+00
 -1.1359701e+00
 -7.6959050e-01
  1.3852547e-01
 -1.3092433e+00
  8.6560237e-01
  2.2580144e-01
 -5.4242665e-01
  9.5676112e-01
 -9.1143861e-02
 -3.4037452e+00
  1.3978513e+00
 -7.0084000e-01
 -2.0212581e+00
  2.0454977e+00
 -8.8110948e-01
  2.9142432e+00
 -1.1976308e-01
  1.2281570e+00
  1.2056636e+00
 -1.0655545e+00
 -2.5568393e-01
 -1.8989128e-01
  1.3361654e-01
 -1.6036034e-02
  9.5918459e-01
  7.6552235e-02
 -7.8992642e-02
  1.9048406e-01
 -2.4033222e+00
  2.0063138e+00
  5.0601536e-01
  9.8129535e-01
 -5.6249112e-01
 -2.7153805e-01
  3.7126014e-01
  2.2399404e+00
  6.5974420e-01
  4.1318941e-03
 -6.1993039e-01
 -1.3121799e+00
  1.1070662e+00
 -1.2700805e-02
  5.3873217e-01
 -5.2707160e-01
 -2.9833315e-02
 -3.6199716e-01
 -1.3719742e+00
 -2.2290590e+00
  8.3299345e-01
 -3.8339701e-01
 -1.0402434e-01
 -1.6442269e+00
  3.0384776e-01
  1.7799424e-01
  2.5417471e+00
 -1.6764098e+00
  5.2625036e-01
 -1.8085957e-02
  2.8503156e-01
  3.4854588e-01
  4.4814613e-01
  5.7499617e-01
 -1.8393347e+00
  1.6652703e+00
 -3.4438595e-01
  7.9514909e-01
 -1.1069427e+00
 -1.3259131e+00
  1.0562905e+00
  4.9868485e-01
 -5.2268021e-02
  1.4152938e+00
 -1.2365385e+00
 -1.0126387e+00
 -1.4533516e+00
 -7.2380245e-02
  6.7527759e-01
 -2.2787218e+00
 -9.5343900e-01
  2.3043318e-01
 -3.9944988e-01
 -7.7037203e-01
 -6.5073448e-01
 -2.7026548e+00
 -5.2567482e-01
  4.2988148e-02
  1.4866379e-01
 -1.5429280e+00
 -1.9620405e+00
 -3.6558989e-01
  5.7812057e-02
  1.1074810e+00
 -9.2914450e-01
  1.3591596e+00
 -6.6927814e-01
 -3.2029721e-01
  5.7854486e-01
 -7.9452246e-01
  1.4885427e+00
  1.4710556e+00
  1.1082796e+00
 -3.5649009e-02
  5.1886451e-01
 -4.9936670e-01
  1.4776433e+00
 -1.6449109e+00
  7.1224594e-01
  8.2392693e-02
  7.9518139e-01
 -6.8443519e-01
  6.4794028e-01
  7.6293534e-01
  9.0746677e-01
  3.7343046e-01
  1.7025032e+00
 -5.8222890e-01
  1.4198834e+00
  2.7905160e-01
  3.5979199e-01
  3.2460389e-01
  7.9545665e-01
  2.6652300e-01
  9.8044343e-02
 -1.4388607e+00
 -1.5854610e+00
  6.1867166e-01
  3.1910533e-01
  1.2153828e+00
  3.8735917e-01
  1.7505069e+00
 -9.5674694e-01
  5.7774556e-01
  1.0308038e-01
 -1.1239738e+00
 -1.0081819e-01
  8.8503994e-02
 -9.7015448e-02
 -7.0867419e-01
  4.2349909e-02
  1.5683715e+00
  1.1448426e+00
  1.3406816e+00
 -1.0402920e+00
 -1.8005526e+00
 -7.1205407e-01
  1.4785632e+00
  4.7950146e-01
  1.4866837e+00
  6.1777127e-01
  2.1198950e+00
  1.1604730e-01
  3.1723365e-01
  7.5822496e-01
 -5.9443164e-01
 -7.7328819e-01
 -1.3629231e+00
 -5.7179433e-01
  7.7827638e-01
 -1.1923245e-01
  3.7839508e-01
 -1.2927313e+00
 -8.7065035e-01
  6.8197429e-01
 -1.0663631e+00
  8.3691168e-01
  2.0623298e-01
  3.0744048e-02
 -3.3584002e-01
  8.3599699e-01
 -5.0787652e-01
  1.4038162e-01
 -6.5578878e-01
  1.0016942e+00
 -1.1095853e-01
 -1.5430706e+00
 -4.3022573e-01
  8.6350834e-01
  7.1241927e-01
  1.9163057e-01
 -6.4709097e-01
 -9.0969938e-01
  1.7533888e+00
 -1.0051777e+00
  1.6715574e-01
 -2.0208752e-01
 -9.2675894e-01
  7.5339913e-02
  1.0837827e+00
  1.9172746e-01
  1.7874912e+00
  1.2884256e+00
 -9.4664001e-01
 -7.5633621e-01
  2.8879675e-01
  1.8192084e+00
  8.0616438e-01
 -2.9243454e-01
 -3.5924405e-01
  7.9711950e-01
  4.5286167e-02
  1.1062344e+00
  1.3086572e+00
 -1.2200528e+00
  9.4301301e-01
 -1.4212680e+00
 -1.0337673e+00
 -9.9387906e-02
 -1.2970711e-01
  5.6575340e-01
 -6.9581771e-01
  1.3352389e+00
 -8.4514350e-01
 -1.0226091e+00
  3.5085154e-01
 -2.2934949e+00
 -1.6364315e+00
  1.2396959e+00
  2.5671142e-01
 -6.2213701e-01
 -2.9344839e-01
 -1.2966589e+00
 -2.0396000e-01
  4.7363785e-01
  1.6892194e+00
  2.1667321e+00
 -1.9374533e+00
  2.8056616e-01
 -3.9601234e-01
 -1.2375838e+00
  7.4355721e-01
 -7.3201346e-01
 -1.6507181e+00
  3.3251679e-01
  2.8893058e+00
  9.7509581e-01
  3.6994677e+00
 -5.9020948e-01
 -1.6926202e-01
 -1.6592104e+00
  6.9633919e-01
 -1.1563997e+00
 -5.7983845e-01
  3.1524239e+00
 -2.4325152e-01
 -4.9966982e-01
  1.5128986e+00
 -2.4363469e-01
 -5.7067281e-01
  1.0604806e+00
 -1.9252552e+00
  2.5204608e+00
  1.7658776e+00
  9.5242821e-02
 -3.0315396e-01
  1.2711940e+00
  3.5820308e-01
  2.8619444e-02
 -1.8549527e+00
 -2.0847676e+00
 -1.3583425e+00
  1.3184701e+00
  7.3153532e-01
  1.3196250e+00
 -1.3495380e+00
 -1.2574319e+00
 -5.2268541e-01
  2.0277119e+00
  3.3393532e-01
 -2.8105676e+00
 -1.5301560e+00
 -8.3831245e-01
  5.7020473e-01
  3.0295280e-01
 -5.9042865e-01
 -1.6378620e+00
  7.8222200e-02
 -2.5865808e-04
 -1.6173885e+00
  8.1832027e-01
  1.4620348e+00
  2.6990199e-01
  1.8179933e+00
 -1.4361184e+00
 -1.0936346e+00
 -7.0365876e-01
  6.7798167e-02
  9.6049869e-01
  4.8157331e-01
 -1.0808055e-01
 -8.8042444e-01
 -1.4618902e+00
 -1.3039876e+00
 -3.5287532e-01
 -1.6457832e-01
 -1.5518597e-01
  7.3515218e-01
  1.1390741e+00
  4.2766047e-01
 -5.5285877e-01
 -3.4906980e-01
  4.5759371e-01
 -9.9170113e-01
 -1.0299127e-01
  1.5277808e+00
  3.7047383e-01
 -4.6747038e-01
  1.7835054e-01
  1.2723621e+00
  3.4469733e-01
 -9.7577029e-01
 -3.9172220e-01
 -9.5234638e-01
 -3.9879419e-02
 -2.1019175e+00
 -4.5813814e-01
 -1.4910907e+00
  1.2030252e+00
  2.1437919e-02
 -1.7304122e+00
 -6.5422672e-01
  6.7482328e-01
 -4.8754174e-01
  2.6880813e-01
  4.1346025e-01
  3.8022444e-01
 -1.3550674e+00
 -2.8684109e-01
  1.7849582e+00
 -7.6092285e-01
  8.7928429e-02
 -8.8896567e-01
  1.6933805e+00
 -1.7901733e+00
 -6.1440110e-01
  1.0650869e-01
  6.3721597e-01
 -2.3782872e-02
  1.3666599e+00
  8.0194390e-01
 -7.6847827e-01
 -1.0879310e+00
 -2.3096891e-02
 -2.0584152e+00
 -1.2292986e-01
 -2.8226590e-01
 -4.4389719e-01
 -6.7997742e-01
 -7.2144812e-01
  9.3221441e-02
  8.8753426e-01
  3.5729429e-01
 -1.2005380e+00
 -4.3598631e-01
  2.6642281e-01
  1.2193689e+00
 -5.1895237e-01
 -1.4209566e+00
 -2.1076391e+00
 -3.0120665e-01
  7.1450597e-01
 -4.8629358e-02
 -2.2783063e-01
 -5.8706576e-01
  9.2700475e-01
  5.2808982e-01
  1.5549731e+00
  2.4186118e+00
  7.1366173e-01
  3.5966390e-01
  1.9192789e+00
  2.1092772e+00
  4.9814948e-01
 -4.0315887e-01
  1.5686002e+00
  4.2419780e-02
 -2.1940846e+00
 -4.0052933e-01
  3.0388835e-01
 -1.3180368e-01
  2.1768856e-01
  2.2945568e-01
  7.2351271e-01
  2.4449083e-01
  6.6545188e-01
 -7.7010013e-02
  4.1586292e-01
 -1.7749387e+00
 -7.3577511e-01
  1.1041235e-01
 -8.4981471e-01
 -3.3370011e-02
 -5.7474786e-01
 -1.7372773e+00
  1.0546621e+00
 -4.6229318e-01
 -1.2702604e-01
 -1.2878805e+00
  7.0310223e-01
  2.6386014e-01
  1.0720326e+00
 -2.9247689e-01
  1.2996141e+00
 -6.1984074e-01
 -1.4334773e-01
  1.5898402e+00
  7.8366709e-01
 -5.6818418e-02
  2.8547582e-01
 -5.3211814e-01
 -1.4738704e+00
  1.3045160e+00
  2.7026005e-02
 -1.2746087e-01
  6.1130047e-01
  3.5883290e-01
 -5.3360915e-01
  6.8887675e-01
 -2.3523362e+00
 -5.9343755e-01
  2.0723294e-01
  6.5264970e-01
  2.4477154e-01
  9.3279308e-01
  2.4127252e-01
 -1.9496432e-01
 -2.7130980e+00
  2.2880682e-01
 -1.2893012e+00
  1.0446393e+00
 -8.6598164e-01
 -1.2504029e+00
  3.3961754e-02
  1.7089811e-01
  1.3004096e+00
  6.3358063e-01
  9.7233452e-02
 -1.3422641e+00
 -7.4255513e-03
 -1.6928385e+00
 -6.3493788e-01
 -8.0766684e-01
 -1.4351671e+00
  2.1158459e+00
 -1.1907495e+00
 -2.3553252e+00
  8.6605585e-01
 -4.5601270e-01
  2.8269878e-01
  1.1581348e+00
 -3.3388723e-02
  1.7544169e+00
  1.0077798e+00
 -1.9213113e+00
 -1.1999986e+00
  2.6017959e+00
  1.1812150e+00
 -1.3336689e+00
 -7.6802164e-01
  6.9268316e-01
  5.9433275e-01
 -1.1703814e+00
 -1.8587912e+00
  5.3992575e-01
  4.6920237e-01
  7.6093622e-02
  1.9174457e-01
 -4.2305619e-02
 -1.2221035e-01
 -2.5789335e+00
  1.0225720e+00
 -2.8098583e+00
  5.8122772e-01
 -6.8327230e-01
  2.5675312e-01
 -3.0235377e-01
  1.3266592e+00
 -6.3311690e-01
 -1.3777669e-01
 -6.8494481e-01
 -6.0877496e-01
  1.3501014e+00
  1.2781367e+00
  1.5945779e+00
 -3.4106386e-01
  3.8244531e-02
  1.8796710e-02
  6.6409993e-01
  2.3511539e+00
 -7.5110990e-01
 -1.1378663e+00
  4.2822060e-01
  7.7938211e-01
 -1.3797177e+00
  2.1584785e+00
  4.8532066e-01
 -9.9621975e-01
  3.5597822e-01
  1.6822001e-02
  7.8758590e-02
 -4.3466273e-01
 -1.7905658e+00
  8.5070300e-01
 -1.6444714e-01
  4.8697811e-01
 -7.3429549e-01
  1.5178562e+00
 -3.6349576e-02
  1.6175173e-01
  6.6218859e-01
  1.2319306e-01
  6.9153607e-02
 -1.1145091e+00
 -1.5647423e-01
 -2.2147207e+00
 -1.0901033e+00
 -1.0519840e-01
  5.7001162e-01
 -2.8377101e-01
  2.2241892e-01
  1.0205333e+00
 -7.3454815e-01
  9.4448090e-01
  4.2049971e-01
  1.9724579e+00
 -1.1544864e+00
  1.3425202e+00
 -1.9123038e+00
  1.1678540e+00
 -1.3909146e+00
  4.6378270e-01
  5.3367710e-01
 -7.9835528e-01
 -3.9130735e-01
  5.8772498e-01
 -2.4986216e-01
  5.8169800e-01
  1.7064860e+00
  1.8804016e+00
 -6.6651726e-01
  1.4267217e+00
  7.5567275e-01
  5.3483015e-01
 -1.5423218e+00
 -1.9731171e-01
  2.1412945e+00
  1.0784498e-01
 -1.1512731e+00
  4.7471291e-01
  9.3458366e-01
  3.9597479e-01
 -2.4128306e-01
  1.1147826e+00
  1.6209525e+00
 -1.8646291e+00
 -7.7965349e-01
 -4.1464704e-01
 -9.4973558e-01
  3.5062805e-01
 -4.3778634e-01
  3.3277351e-01
 -2.2966387e+00
  9.3064204e-02
 -5.1190650e-01
 -3.0595348e+00
 -1.0006889e-01
 -1.7886503e+00
 -1.6109619e+00
 -1.0054982e+00
  6.0799223e-01
 -6.1138368e-01
  5.7911653e-02
 -1.1192315e+00
  5.8661360e-01
 -2.3270781e+00
 -7.0682205e-02
  1.4492669e+00
  9.0512919e-01
 -4.5411971e-01
  2.7328152e-02
  3.0684592e-03
 -7.8723484e-01
  1.3705364e+00
 -7.5419706e-01
  8.8278466e-01
 -8.1167984e-01
  5.9203655e-01
 -4.3256503e-01
 -1.0810002e+00
 -6.3278770e-01
  4.5898870e-01
 -2.3756862e-01
  2.4091233e-01
 -6.9264345e-02
  1.2769923e+00
  2.8843629e-01
  2.5353378e-01
 -1.7557487e+00
  1.4699520e+00
 -5.4140419e-01
  1.0487897e+00
  6.0583937e-01
  1.3235620e+00
 -4.0472117e-01
  4.1526520e-01
 -1.3093403e-01
 -4.3471763e-01
  7.5159729e-01
  1.0429441e+00
  3.3153388e-01
 -1.7951162e+00
  2.9788420e-01
 -5.2795198e-02
 -1.0575316e+00
 -4.7778574e-01
  3.4836572e-01
 -1.0122111e+00
 -3.3162971e+00
 -1.4718978e-01
 -6.4815450e-01
  1.3433492e+00
  4.0727764e-01
 -6.4100230e-01
  4.1262552e-01
  1.9172667e+00
  5.8168775e-01
 -6.0116738e-02
  7.0359468e-01
  7.4522424e-01
  7.5605047e-01
  1.7922540e+00
  8.4017420e-01
  1.1468191e+00
  7.2397923e-01
 -1.3498887e+00
 -6.7644602e-01
  6.0062551e-01
  4.0434912e-02
  1.6942468e+00
 -7.5530875e-01
 -1.1872460e+00
 -1.2434576e-01
  6.7902851e-01
  1.7349222e+00
  2.0666957e+00
 -1.2313408e+00
 -8.8063115e-01
  1.4801796e-01
  3.1353250e-01
  8.6906129e-01
 -2.5855520e-01
  7.1940374e-01
 -1.6392170e+00
 -1.0293553e+00
  1.4116391e+00
  1.7442695e+00
  4.1616359e-01
  4.8876619e-01
 -5.7711184e-01
 -4.7734621e-01
 -8.5543036e-02
  1.1173480e+00
  8.5203636e-01
  3.4704304e-01
  5.0763529e-02
  2.3921475e+00
 -1.3368478e+00
  7.0611507e-01
 -1.1122066e+00
 -6.9863766e-01
  4.6062905e-02
  2.2616239e+00
 -5.0030011e-01
 -4.3062049e-01
 -6.7606264e-01
 -2.3232476e-01
 -1.1107615e+00
  1.9656411e-01
  4.5939359e-01
 -1.8158251e-01
 -9.9127108e-01
 -7.1331507e-01
 -1.3915849e+00
 -1.4377466e-01
 -3.6397466e-01
 -1.2123511e+00
  7.4941352e-02
  6.3335103e-01
 -6.6508658e-02
  7.2839290e-01
  3.2051596e-01
 -1.9326283e+00
  4.2661235e-01
 -3.2397488e-01
  1.4329469e-01
 -1.4159219e+00
  1.1640148e-01
 -8.6465549e-01
 -5.9261984e-01
 -1.6008439e+00
 -6.9262528e-01
 -1.0662850e-01
 -1.2514049e-01
 -9.1113722e-01
 -2.5826151e+00
  2.1856661e+00
 -1.9783887e+00
 -3.5512316e-01
  4.0163983e-02
  1.8927382e+00
 -4.6690083e-01
 -3.5760263e-01
 -1.0781323e+00
  7.6002425e-01
 -4.8082778e-01
  1.6495754e+00
  5.8379412e-01
  1.3851477e+00
 -1.5066776e-01
  7.9847217e-01
  2.6578331e-02
  4.7112033e-01
 -8.7694013e-01
 -1.5746107e+00
  6.3529027e-01
 -2.4257010e-01
  1.1444552e+00
 -1.7173404e-01
  1.4809253e+00
 -9.6563864e-01
  2.8459809e+00
 -9.2593008e-01
  9.2762679e-01
 -2.0907843e+00
  2.0010644e-01
 -1.6809232e+00
  9.7752279e-03
  1.6666800e+00
 -7.7092034e-01
  1.1072910e+00
 -1.7582209e+00
  6.7824554e-01
  1.3035009e+00
  1.3429159e-01
 -1.5255514e+00
  1.6003908e-01
  1.3949018e+00
  6.8437539e-02
 -1.0936133e+00
 -2.3553261e-01
 -3.1703880e-01
 -9.6076377e-02
  9.1380322e-01
 -6.8694884e-01
 -6.5994424e-01
 -2.4129198e+00
 -1.0277822e+00
 -2.1552680e+00
 -1.0796452e-01
 -1.1858302e+00
  7.7031654e-01
 -1.3291245e+00
 -1.7412649e+00
  1.7134700e+00
 -5.9917575e-01
  6.7932379e-01
 -1.1952218e+00
  1.9182774e-01
  9.5320016e-01
 -1.0565715e+00
  1.9966713e+00
  1.2505080e-01
 -1.2319466e+00
  2.2919786e-01
  6.7987755e-02
 -6.7334491e-01
  2.1515677e+00
  1.1088468e+00
 -1.1376946e-01
  8.3447576e-01
 -9.4791818e-01
  7.9038876e-01
 -4.0131077e-01
  1.9688295e-01
  1.2906278e+00
 -1.4209532e+00
  1.7769582e+00
  1.1641600e-01
 -1.6502450e+00
 -1.1837367e+00
  5.9036225e-01
  6.1280018e-01
 -7.5285876e-01
  3.6529478e-01
 -2.0000015e-01
  8.2675046e-01
 -5.4201490e-01
 -7.6819891e-01
  3.9547175e-01
 -9.5638327e-02
 -5.5986110e-02
  7.8492683e-01
  1.2340645e+00
  1.8197876e+00
  2.4862110e-03
 -2.1334076e+00
  2.0870502e-01
  2.2034512e-01
  1.0189874e+00
  4.1617069e-01
 -1.3207966e+00
  7.9964501e-01
  1.7248946e-01
 -5.2250862e-01
 -7.9953554e-04
  6.1428082e-01
  6.3645434e-01
  1.4008658e+00
 -1.1796397e+00
 -1.8518362e+00
  4.9164850e-01
 -1.0940824e+00
  4.2537549e-01
  2.5340123e+00
 -7.3365813e-01
  2.1638353e-01
  1.4134681e+00
  9.7022541e-02
  2.8375396e-01
  6.7098808e-01
  1.4559348e-01
  2.2473774e+00
  1.0146297e+00
  2.9640418e-01
  1.1958143e+00
 -1.9240885e+00
  2.8704107e-01
 -2.6507965e-01
  1.6298534e+00
 -7.8816867e-01
  2.3864524e-01
 -9.9400300e-01
  9.6664429e-01
  1.0406963e+00
  4.2724752e-01
 -5.3823602e-01
 -7.2417223e-01
  2.9836383e-01
 -3.0618126e-02
 -6.2408268e-01
 -2.3648257e+00
  7.2863984e-01
  1.1448857e+00
  1.3706880e+00
  1.7659796e+00
 -6.3774645e-01
 -1.8449156e-01
 -6.7009592e-01
  1.5898011e+00
  7.1533680e-01
  1.8421329e+00
  6.4597553e-01
 -1.7601789e+00
  1.3150200e+00
 -5.7525390e-01
 -1.9446701e+00
  1.2243403e+00
 -9.3152893e-01
  5.1678306e-01
 -1.0078908e+00
  2.3468735e+00
  1.2355422e+00
 -5.6454456e-01
 -1.3801137e+00
 -1.0224622e-01
 -7.6663840e-01
 -9.5476204e-01
  8.0043930e-01
  5.5534309e-01
  6.0973573e-01
  6.2250328e-01
 -1.3604190e+00
  9.7632164e-01
  1.9259758e-01
  1.1431830e+00
  3.4345898e-01
  1.7537294e-01
 -1.0486919e+00
  7.2495079e-01
 -2.4746311e+00
  8.7336999e-01
 -1.3222240e+00
  2.8541946e-01
 -5.1072502e-01
 -5.6365693e-01
  2.2210154e-01
 -1.9114123e-01
 -2.6355854e-01
 -5.0873911e-01
 -8.6736906e-01
 -9.2059159e-01
 -2.2798844e-01
 -6.9195613e-02
 -1.6036130e-02
 -1.5107890e+00
 -1.9584389e+00
  1.1561804e+00
  2.4534152e-01
 -1.3271072e+00
  1.6208917e+00
 -2.4926064e+00
  5.9857512e-01
 -1.4838843e-01
  3.6504295e-01
  3.9296787e-02
 -6.2843084e-02
  1.3353753e+00
 -5.7182658e-01
  7.0405173e-01
  1.3427569e+00
  1.1900060e+00
 -3.7767899e-01
  9.4269909e-02
 -3.6327964e-01
 -1.6071725e+00
  1.5553713e+00
 -6.9682163e-01
  1.3523010e+00
  1.2010951e+00
  1.3203971e+00
  2.8620207e+00
 -7.1539426e-01
 -2.8183743e-01
  1.1148142e+00
 -2.1825838e-01
 -5.4667771e-01
  4.4571006e-01
 -1.0936621e+00
  4.6819428e-01
 -1.1075166e-01
 -1.1632843e+00
 -2.3266711e+00
 -1.2551644e+00
  6.6563472e-02
 -4.8395630e-02
 -1.2544768e+00
  1.7225344e-01
  8.8714230e-01
 -2.8112859e-01
  1.8426727e-01
  3.2315250e-02
 -1.0926365e+00
 -8.4960842e-01
  5.4084128e-01
  1.1985935e+00
 -1.3447373e+00
  1.1366377e+00
  7.5101602e-01
 -1.1326837e-01
 -1.3065577e+00
 -9.9632514e-01
 -1.3995190e+00
 -3.1683388e-01
  7.3852909e-01
 -7.5461406e-01
  2.0899837e+00
 -1.1492316e+00
  2.1483047e+00
 -8.6788553e-01
 -2.5615305e-01
 -1.5453674e+00
  1.5319507e+00
  7.7336502e-01
 -1.1340550e+00
  4.4393018e-01
  1.9456866e+00
 -6.6045427e-01
  1.2129595e+00
 -6.9315389e-02
  1.1218213e+00
  7.4534583e-01
 -7.3139042e-01
 -1.4292684e+00
  8.6589181e-01
  1.7580277e+00
  2.7813435e+00
  1.5943774e+00
 -2.0001624e+00
  1.6674685e+00
 -3.0482717e+00
  4.2801318e-03
 -8.1986493e-01
  8.1153667e-01
 -8.6349279e-01
  1.8850780e-01
  9.8597926e-01
  7.0924217e-01
  1.1009566e+00
  7.7399015e-01
  2.0768650e+00
  5.9152222e-01
 -1.1749773e+00
 -6.9076037e-01
 -3.9296005e-02
  8.5643655e-01
 -1.7452892e+00
 -7.4625874e-01
 -1.5054201e+00
  2.7295533e-01
  1.0473052e+00
 -1.8659903e-01
  1.7625711e+00
 -1.4694054e-01
  3.5209954e-01
  8.7555212e-01
 -4.0239012e-01
  2.3721297e+00
 -9.0836370e-01
 -1.8480873e-01
 -5.7150966e-01
 -5.3912842e-01
  3.0265728e-02
 -1.9952187e-01
 -1.3084271e+00
  5.7704610e-01
 -3.8993627e-01
 -2.8340372e-01
  2.0091782e+00
 -1.2607756e-01
  1.3870759e-02
 -3.7198332e-01
 -2.3768789e-01
  1.3094209e-01
  2.5971797e-01
  1.5432339e+00
 -1.3104770e+00
 -1.8455182e+00
 -3.2101197e+00
 -9.2771804e-01
  2.0607813e-01
  1.1226418e+00
 -6.5251112e-01
 -1.0026418e+00
 -6.4522225e-01
  1.0228812e+00
 -1.4451195e+00
  1.3203712e+00
 -5.2624756e-01
  1.6525817e+00
  5.7462364e-01
  9.0713912e-01
  4.9926296e-01
  2.1982894e+00
 -2.4624910e+00
  2.5979933e-01
 -1.2943799e+00
 -1.3799466e+00
  1.3018663e+00
 -8.6810482e-01
  3.2899344e-01
  1.6612531e-01
 -4.5264781e-02
 -9.2333835e-01
 -6.2968367e-01
 -2.7988243e-01
 -1.5062479e+00
  1.6421371e+00
 -7.4641383e-01
 -1.6513279e-01
  8.4431398e-01
 -8.8579988e-01
 -1.4557970e+00
  2.1709225e-01
  1.0467797e-01
 -7.2265536e-01
 -1.0748871e-01
 -2.2789414e+00
  5.6830198e-01
 -4.1710076e-01
 -5.5336136e-01
  6.1701857e-02
  1.3119994e+00
  1.8714626e-01
  8.9486957e-01
 -1.5023643e+00
 -2.5185385e-01
 -3.0999011e-01
 -4.1917205e-01
 -8.3086103e-01
  5.8018144e-02
 -5.9955321e-02
 -3.5865280e-01
 -9.5315689e-01
  1.2358757e+00
  8.9385122e-01
 -8.4030032e-01
  6.4778441e-01
  1.4859262e+00
 -2.0122426e+00
 -4.9704794e-02
  1.5678942e-01
  4.5428184e-01
  1.4955452e-01
 -1.4855328e+00
  2.2558017e-02
 -3.9795595e-01
 -2.1821225e+00
  1.6793491e-01
  1.9223492e+00
 -5.3325939e-01
 -8.0846679e-01
 -7.4779755e-01
 -2.0392048e-01
 -2.2879922e+00
 -2.9504648e-01
 -4.2648077e-01
  1.6516643e+00
  5.4207760e-01
  9.3973726e-01
 -2.3552814e+00
  4.7328058e-01
 -2.4170417e-01
 -1.0836437e+00
  1.5426176e+00
  8.1939799e-01
  2.3310108e-01
  8.1802350e-01
  4.5195749e-01
  1.0042731e-01
  3.0631104e-01
 -1.2154922e+00
  5.0629395e-01
 -6.3817704e-01
 -7.1757168e-01
 -1.6674211e+00
 -1.1393352e+00
  4.6136156e-01
  6.6548347e-01
  1.2878536e+00
 -1.7709122e+00
  2.5653657e-01
  1.7140174e+00
  1.4557585e+00
 -8.2653934e-01
 -8.5529619e-01
  2.0351655e+00
  1.2378185e+00
 -1.5087979e-01
 -4.5831209e-01
  4.3945181e-01
 -4.1768566e-01
 -1.7738987e+00
 -7.4656177e-01
  5.2981919e-01
  2.0974267e+00
  1.3240713e+00
 -6.4943010e-01
  2.5978186e+00
 -8.6557323e-01
 -7.5688756e-01
 -1.2045429e+00
  1.3440099e+00
  1.6960242e-01
  1.5937606e-01
  1.5948011e+00
 -1.1949884e-01
 -1.9653313e-01
  1.7746285e+00
  7.5674188e-01
 -3.8850752e-01
 -7.6694214e-01
  1.2533331e-01
 -1.8358979e+00
  3.6473906e-01
 -3.9111476e-02
 -8.2371157e-01
 -9.5349193e-01
 -1.0879809e+00
 -4.8994165e-02
 -2.9474409e-02
 -1.4854120e-01
  3.1613168e-01
 -9.6977860e-01
 -4.9688306e-01
  2.1308978e+00
  5.4253232e-01
 -1.4030756e+00
 -3.4546170e-01
  1.5190396e+00
  2.1024710e-01
 -3.3607614e-01
  1.8394407e+00
 -1.8284239e+00
  1.1434788e+00
  1.6733785e+00
  3.8652834e-02
  4.9407193e-01
  5.6489760e-01
  1.0246769e-01
 -4.8001605e-01
 -1.7972860e+00
 -5.3030419e-01
  1.1096896e+00
 -1.0470809e+00
  6.8533015e-01
  1.7271438e-01
  1.6377766e+00
 -2.1695178e+00
 -9.9912429e-01
 -3.1779610e-04
 -3.3194888e-01
  1.4916734e-01
 -4.3310162e-02
  5.3035390e-02
  1.6016521e-01
 -7.6230454e-01
 -7.8835654e-01
 -8.0159467e-01
  8.6595845e-01
  1.1526015e+00
 -3.8743106e-01
  4.2495611e-01
  1.2738461e+00
 -1.3538355e+00
  5.9032496e-02
 -1.0515419e+00
 -1.3050398e+00
  1.7616489e+00
 -1.4890602e+00
 -4.1242051e-01
 -3.6351767e-01
 -2.6203506e+00
  6.8063140e-01
 -9.9612612e-01
  4.4119355e-01
 -1.5118397e+00
 -7.1603620e-01
 -3.5473773e-01
  7.9149163e-01
  1.7311326e+00
  9.0714920e-01
  2.7194133e+00
 -2.2991519e-01
 -3.5737045e+00
  5.1910192e-01
 -1.6099958e+00
  1.3254392e+00
  6.7214292e-01
  4.9808264e-01
 -2.0469019e-01
 -5.4628208e-02
 -9.3246138e-01
  9.4126600e-01
  1.8046135e+00
 -1.4853327e+00
 -7.9767418e-01
  8.6087060e-01
 -1.0165831e-01
  5.2640826e-01
  1.6413994e-01
  2.5387794e-01
 -1.4811982e+00
 -2.2896514e+00
  3.7399942e-01
  8.0975056e-01
  8.9762217e-01
  3.8093284e-01
  1.6295546e+00
  1.3166329e+00
 -5.3322699e-02
  2.5364025e-02
  1.1305521e-01
 -7.1289316e-02
  1.9118814e+00
  9.7483611e-01
 -1.8398741e-01
 -6.2302053e-01
  2.7748686e-01
 -6.4210576e-01
  7.5403297e-01
  4.1301277e-01
 -1.4595575e+00
  1.4506962e+00
  1.3051226e+00
  2.0718233e-01
  1.8739840e+00
  1.4621896e+00
 -1.4864390e-01
  5.3169718e-03
  1.5977275e+00
  5.0242299e-01
  1.2333236e+00
 -8.8470727e-02
  3.9634898e-01
 -2.5250626e-01
  5.8063503e-02
  1.2961932e+00
 -5.5245847e-01
 -2.3960119e-01
  1.1099057e+00
 -8.2054937e-01
  1.1773931e+00
  6.6367370e-01
  1.6143092e+00
 -2.0892723e+00
  1.5468143e+00
 -2.7951691e+00
  1.0844680e+00
  5.2176857e-01
  3.8739198e-01
 -1.9570735e+00
 -5.3118902e-01
  1.5725778e-01
  6.8674606e-01
  5.4099905e-01
  2.1832769e-01
  2.3986259e+00
  1.0228449e+00
  1.2121271e+00
 -4.8673868e-01
 -4.1145143e-01
 -5.1031393e-01
  2.9554996e-01
 -1.5219136e+00
  1.4765030e+00
  6.4395922e-01
  1.2476269e+00
 -2.6619068e-01
 -1.9382244e+00
  6.7893438e-02
  1.3290294e+00
  1.8478401e+00
 -8.0334276e-02
 -6.3364446e-01
 -1.3422577e+00
  5.7401454e-01
 -2.0287910e-01
 -2.0843691e-01
 -8.0154127e-01
  1.1767093e+00
  3.1741731e+00
 -9.3105322e-01
 -3.1277117e-01
 -4.4091141e-01
  7.0508972e-02
 -5.2513367e-01
  4.2595288e-01
  1.3512310e+00
  3.1269267e-01
 -2.7273831e+00
  1.1615431e+00
 -5.0700045e-01
  4.0086780e-02
  7.6974571e-01
 -6.1958902e-02
  2.6711646e-01
  1.5468166e+00
  7.8163505e-01
  9.7424084e-01
 -2.3856456e+00
 -1.7765070e+00
  8.9769644e-01
 -1.5433999e+00
 -1.1256204e+00
  1.3866046e-01
  1.5163823e+00
  7.4801183e-01
  4.2271876e-01
 -2.4550989e+00
  1.8629555e-01
  1.2269436e+00
 -6.2547404e-01
  3.9780000e-01
 -1.3641478e+00
 -1.8280040e-01
 -9.4379002e-01
 -1.7807446e-01
 -8.3185732e-01
  1.3693570e+00
 -7.1548909e-01
 -8.9008474e-01
 -2.6477991e-02
 -5.0758058e-01
 -2.4517374e+00
 -1.3739837e+00
  1.0606201e+00
  3.9668405e-01
  2.8123245e-01
 -9.5405078e-01
  5.4471976e-01
  1.3090973e-02
  1.6467346e+00
  6.9170231e-01
  8.5531020e-01
 -1.4793497e+00
 -1.2618095e-01
  6.0582075e-02
 -1.9260485e+00
 -3.3573419e-02
 -2.7421993e-01
 -1.0698349e+00
 -3.8562931e-02
  2.6988189e+00
  1.4697033e+00
  8.4130093e-02
  3.6682436e-01
 -2.1452598e-01
  5.3457618e-01
  1.8771832e-01
  6.6706395e-01
  7.1585566e-01
 -6.9086921e-01
  4.0671194e-01
  1.1341362e+00
 -5.9478595e-03
  1.5783018e+00
  2.8641129e+00
 -2.9842722e-01
  5.6730872e-01
 -4.7199464e-01
 -9.4285101e-01
  9.1478050e-01
  1.3229635e+00
  1.5522181e+00
  1.2396450e+00
  2.0324821e+00
 -1.7079144e+00
  2.5344890e-01
  1.5343344e+00
  1.7395489e+00
  3.2789335e-01
 -1.2641588e-01
  8.8501245e-01
 -1.6982526e+00
 -9.7629112e-01
  7.0470291e-01
 -4.8897007e-01
  4.3103975e-01
 -1.0165504e-02
 -9.5756942e-01
  1.8431581e+00
 -3.5703921e-01
 -1.1067228e+00
 -5.6844079e-01
  1.6578099e+00
  3.6671358e-01
 -1.2871110e+00
 -4.2735517e-01
  1.0360685e-02
  3.1902522e-02
 -7.8609562e-01
  8.6770570e-01
  3.8180187e-01
 -1.2549703e+00
 -2.0040064e+00
 -6.4947087e-01
  4.1269265e-02
 -1.4946630e+00
 -1.1356654e+00
 -2.2787180e+00
  6.3911343e-01
  2.3309657e-01
 -1.8052657e+00
 -1.3469133e+00
  1.8878789e-01
 -1.9893268e-01
 -1.0412310e+00
 -1.4630504e+00
  1.1443596e+00
 -5.7186973e-01
 -6.3736409e-02
  7.9099476e-02
  1.8934644e+00
 -2.6780441e+00
 -9.0596235e-01
  4.1580880e-01
 -1.3076346e+00
  3.0099300e-01
  9.0350813e-01
  1.0324762e+00
 -7.9049844e-01
 -4.7528598e-01
 -1.6280195e+00
  2.8048998e-01
  2.6019635e+00
  1.1692045e+00
  2.5975633e-01
 -1.0341869e-01
 -1.6567537e-01
  1.3353258e-01
  2.3816211e+00
  2.1197928e-01
 -2.8367388e-01
  1.5213320e+00
  7.0543522e-01
  7.2371715e-01
  1.2753850e+00
  1.4470281e-03
 -7.6166677e-01
  1.8312413e+00
 -5.2603543e-01
 -1.5968320e+00
  4.1494703e-01
 -1.3537035e+00
  1.0148321e+00
 -7.0458609e-01
 -1.0175141e+00
  7.7135414e-01
 -9.5637786e-01
 -1.0820279e+00
  6.3157982e-01
 -1.4073324e-01
  4.2447570e-01
  3.4461230e-01
  9.7641873e-01
  9.4050539e-01
 -9.0118366e-01
  7.5244665e-02
  8.8382393e-01
 -8.9778453e-01
 -6.6435158e-01
 -1.8744010e+00
 -1.9515470e-01
 -2.0130427e-01
 -1.4633769e+00
  1.2488332e+00
  8.2792181e-01
  1.9942157e-01
 -1.3263516e+00
 -8.1311196e-01
 -1.4533015e+00
 -3.9284170e-01
  1.8361390e+00
 -2.6247549e+00
  1.5011387e-01
  1.4539965e+00
  5.4440147e-01
  5.6494689e-01
 -6.7999318e-02
  2.1894476e+00
 -1.9507639e-01
  1.1018211e+00
 -6.1794758e-01
 -5.1850766e-02
 -9.8040831e-01
  1.7401090e+00
  8.0902731e-01
 -7.4039593e-02
  1.3879211e+00
 -1.1386137e+00
  4.3673733e-01
 -9.4463825e-01
 -8.9949012e-01
  3.8161838e-01
 -1.3210228e-01
  1.3251132e+00
 -3.4607816e-01
  6.8762857e-01
  3.6962684e-02
 -2.9149655e-01
 -7.8113371e-01
 -6.9751555e-01
  7.0000148e-01
 -1.3552843e-02
  7.0219553e-01
 -8.9660674e-01
  2.1269903e-01
  5.5439973e-01
  2.6618545e+00
  1.4925638e+00
  1.6510116e+00
 -7.1854770e-01
 -6.3967812e-01
 -1.9159256e-01
 -1.0411694e-01
 -8.0603439e-01
 -6.3742203e-01
  2.3566346e-01
 -3.3122545e-01
  1.0162205e+00
  1.5307572e+00
  3.0417401e-02
 -1.2154559e+00
  2.4247976e-01
  1.1501590e-01
 -6.3715965e-01
 -4.9231562e-01
 -9.7498900e-01
  7.0997721e-01
 -2.9616010e-01
 -2.8194496e-01
  3.2268843e-01
 -1.5221636e+00
 -1.1230105e+00
 -5.4918861e-01
  1.1584872e+00
  5.1648624e-02
  8.8073802e-01
  3.5441953e-01
  1.8445818e+00
  2.2056456e+00
  1.3234216e+00
 -6.9586682e-01
  1.8858565e-01
  3.3708388e-01
 -1.4667541e-01
 -4.8566031e-01
  1.1543670e+00
 -6.1021715e-01
 -7.5766474e-01
  6.0285425e-01
  2.8306937e-02
 -1.0434748e+00
  5.1337379e-01
  1.1154481e+00
 -4.2000973e-01
  7.9760201e-02
  7.7759653e-01
  6.6333663e-01
 -8.4277433e-01
  1.2422363e+00
  1.2070279e-01
 -5.2890438e-01
  2.0553809e-01
 -1.4411899e+00
 -1.0609524e+00
  1.3295994e-02
 -1.1621081e+00
  5.9465790e-01
  9.0312356e-01
  2.5692227e+00
 -8.3224863e-01
 -3.8969734e-01
 -3.6221111e+00
  2.5275551e-02
 -5.5204821e-01
 -4.3124313e+00
  1.7782275e-01
  7.3048550e-01
  1.3340881e+00
 -9.3893027e-01
 -2.5244123e-01
 -8.9402848e-01
 -1.1826823e+00
  7.5927758e-01
 -2.7013443e+00
  4.9988768e-01
 -1.6277723e-01
  5.8396327e-01
  3.6405587e-01
  3.6993429e-01
  5.3485906e-01
 -2.9781151e-01
  2.8513032e-01
 -7.9865374e-02
  5.8378917e-01
  8.8590100e-02
 -2.7334338e-01
 -6.3845140e-01
  2.6310934e-02
  6.4677256e-01
 -7.2535068e-02
 -1.0337895e+00
 -1.7323089e-01
  9.6722472e-01
 -1.4497790e-01
 -7.1560866e-01
  1.2964201e+00
 -9.2032151e-03
 -2.9027443e-03
 -9.8597832e-02
 -2.4426039e-01
  1.2083266e+00
 -4.6475190e-01
 -4.3970206e-01
 -2.0215950e+00
  2.8913969e-01
  4.2697611e-01
  5.8841028e+00
  9.6122962e-01
 -1.5026141e+00
 -3.8582463e-02
 -2.8191036e-01
 -1.8298016e+00
  7.5259084e-01
  2.1409024e-01
  8.6866945e-01
  1.9555347e-01
  1.8357586e+00
 -2.0119474e+00
  1.5327228e+00
 -6.9819283e-01
 -5.6304783e-01
  1.7926728e+00
 -1.2628600e-01
  2.0035810e+00
 -1.9177545e+00
 -8.8975853e-01
  2.1839236e-01
  9.5856905e-01
 -3.1208095e-01
  1.6382474e+00
 -5.8727765e-01
  6.6865140e-01
 -5.3495252e-01
 -1.1088926e-01
 -1.6761196e+00
  1.0748953e+00
 -9.8796111e-01
  2.0061623e-01
  5.1413608e-01
  4.2971310e-01
 -1.4248406e+00
  1.0298111e-01
  1.1928438e+00
 -7.6677620e-02
 -4.9850446e-01
  2.2198067e+00
 -9.4993699e-01
 -4.7084850e-01
 -9.3327445e-01
 -6.1046791e-01
 -4.6754566e-01
  5.8649045e-01
 -1.6676263e+00
  7.4930781e-01
  1.5003914e+00
  6.4286286e-01
  4.8439991e-01
 -2.3292031e+00
 -3.1865421e-01
  1.1820235e+00
  4.6113458e-01
  8.0210167e-01
 -1.1102446e+00
 -4.8601136e-01
  3.5501051e-01
 -1.8785896e+00
 -6.5977490e-01
 -1.1655978e+00
 -3.8988635e-01
 -8.2318449e-01
  1.2516829e+00
 -8.7229393e-02
  1.1659011e+00
 -8.6038315e-01
  1.8375428e-01
  2.4678292e-02
  4.6783215e-01
 -1.5168645e+00
  1.9735089e-01
 -4.9096051e-01
 -1.4143980e-01
 -4.4045711e-01
 -1.0547293e+00
 -4.3789664e-01
  7.5323236e-01
 -6.6499490e-01
  1.8858656e+00
  1.1161759e-01
 -5.9642535e-01
 -4.8559803e-01
 -1.3915230e+00
  3.1040007e-01
  9.3177545e-01
 -1.1793026e+00
 -4.9303774e-02
 -1.6380945e+00
 -4.1408581e-01
 -2.8872028e-01
  2.4347273e-01
  1.2455345e+00
 -8.5501903e-01
  2.7450496e-01
  1.1956551e+00
 -1.0793651e+00
  1.4192697e+00
 -6.8923414e-01
  5.3482693e-01
 -2.5012367e+00
  2.3986498e-01
  7.4243373e-01
 -5.4398495e-01
 -1.3768238e+00
 -1.5838258e+00
  1.6618921e-01
  4.9779326e-01
 -3.6266223e-01
 -3.7482008e-01
  4.9484544e-03
 -6.9220167e-01
  1.3002796e+00
 -3.5109740e-01
 -1.2445471e+00
  1.4952809e-01
 -1.6142114e+00
 -2.5121400e+00
  1.5679104e+00
 -2.2872348e+00
  1.6365113e-02
 -3.5500365e-01
 -7.4238628e-01
  2.4855915e-01
 -1.6049197e+00
 -1.7143096e+00
 -2.8950012e+00
  1.0519625e+00
  1.4943898e+00
  6.9452059e-01
  7.8497529e-02
 -3.8563901e-01
  7.4214959e-01
 -1.4295484e+00
 -1.2264041e+00
  1.0969257e+00
 -1.2416118e+00
 -3.5058057e-01
  2.7837238e-01
 -7.3250997e-01
  4.1356605e-01
  9.3180019e-01
  2.0990548e+00
  1.0566733e+00
  2.6342627e-01
  8.6286265e-01
  7.0831203e-01
  1.0294409e+00
 -4.4316177e+00
  3.1002873e-01
 -7.8528064e-01
  6.5042382e-01
 -3.5093304e-02
 -2.5713381e-01
  5.9942645e-01
 -4.7148541e-01
 -2.5959125e+00
 -4.0976489e-03
 -3.7863478e-01
  1.4479859e+00
 -1.4657702e+00
  7.2067194e-02
 -6.3022190e-01
 -1.0062045e+00
 -4.6895343e-01
 -2.0893626e-01
  1.2560584e-01
  1.0774108e+00
 -1.0174502e+00
 -4.4645372e-01
 -1.5084834e-01
  2.0507603e+00
  6.5031964e-01
 -9.5909707e-02
  6.1692697e-01
  1.3054018e+00
  3.5158032e-01
 -8.6379141e-01
 -2.7022251e-01
  5.5635315e-01
 -7.7094369e-02
 -2.2607760e-01
  2.7476656e-01
 -6.8880612e-01
  9.4148552e-01
 -6.4165211e-01
  7.6354459e-02
 -5.0041890e-01
  5.0599128e-01
 -3.6454964e-01
 -7.8760815e-01
  2.1313009e+00
  1.2186862e+00
  4.9772871e-01
  1.5724036e-01
 -1.6439439e+00
  7.4357319e-01
  7.9177070e-01
  1.6594162e+00
 -6.0619742e-01
 -3.4828389e+00
 -2.7561191e-01
 -7.5360709e-01
 -1.1210811e+00
 -1.1882679e+00
  2.1982738e-01
  4.5221791e-01
  2.3555633e-01
  1.2483295e+00
  1.5878826e-01
 -2.6847294e-01
 -6.2419736e-01
  2.8318632e+00
  2.3966101e-01
  3.0483893e-01
 -1.0194775e+00
  5.9065211e-01
 -3.5278648e-01
  1.6670458e+00
 -2.7083094e+00
 -2.5453124e+00
  1.1911466e+00
  7.2280675e-01
 -7.7952874e-01
  1.2432244e+00
 -5.5532789e-01
  1.6782925e+00
  5.7696915e-01
 -1.4895581e+00
 -8.8755900e-01
 -2.1141307e+00
  1.2912948e+00
 -1.6529428e+00
 -2.8432708e-02
  3.0120128e-01
  1.7009281e+00
  1.6812572e-01
 -5.0710946e-01
  8.1111419e-01
 -4.0880266e-01
 -4.0611354e-01
 -1.1051586e+00
 -9.0345222e-01
  3.2964426e-01
 -4.3337336e-01
  5.8765513e-01
 -4.2212833e-02
  1.4570509e-01
 -1.2736757e-01
 -7.6509900e-02
  6.2731850e-01
 -1.5980308e+00
 -1.4187335e+00
  1.6728742e+00
  6.9500126e-02
 -5.0811350e-02
  3.2192948e-01
 -1.4094815e+00
  2.0843685e-01
 -1.5701429e+00
  5.5800766e-01
 -1.5874126e+00
 -1.4160879e-01
 -1.3505038e+00
  9.9175745e-01
 -6.1661426e-02
 -1.6044682e-01
  5.6850207e-01
 -1.0462662e+00
 -1.2708304e+00
 -9.7984505e-01
  2.2339785e+00
 -4.2362270e-01
  1.9502294e+00
  1.4734875e-01
 -4.8600975e-01
 -1.1340587e+00
  1.2609107e+00
  1.9944915e+00
  2.1393499e+00
 -7.9063308e-01
  1.0825961e+00
 -1.2173661e-01
 -1.2286837e+00
 -7.9184884e-01
  5.5078280e-01
 -2.5059429e-01
 -9.1783777e-02
  1.7728190e-01
  2.0987818e+00
  7.2770995e-01
 -2.9848209e-01
  6.1816263e-01
 -1.7052743e-01
 -1.7244197e+00
  1.3381721e+00
 -6.5748751e-01
 -1.3477545e+00
  3.3610186e-01
  1.5159109e-01
 -8.9043492e-01
  9.7631752e-01
  2.7393505e-01
  1.1309683e+00
 -4.8441735e-01
  5.7609570e-01
 -1.2819186e-01
  3.9813352e-01
 -4.1514248e-01
 -1.0827903e-01
 -1.3825471e+00
  3.0590597e-01
  1.3273798e+00
 -1.7918745e+00
  7.3947400e-02
 -1.5606497e-01
  5.0414307e-03
  1.4260769e+00
 -3.8411188e-01
  1.0332961e-01
 -7.6805317e-01
  2.1563193e-01
 -3.8693970e-01
 -1.5569814e+00
 -1.3727326e+00
 -8.2026649e-01
 -1.2642266e-01
 -5.1316535e-01
  6.9947362e-01
  7.0656133e-01
  2.4614318e-01
  5.2969766e-01
 -1.8903743e-01
 -1.0763748e+00
  2.5142169e+00
  2.8067422e+00
 -9.8895258e-01
 -1.3755243e+00
  3.9146417e-01
 -9.2631108e-01
  4.5445371e-01
  3.0210118e+00
  7.1345894e-03
  6.7100292e-01
 -9.3729329e-01
  1.3610085e+00
  2.2119844e+00
 -1.1349064e-01
  1.1612849e+00
 -2.7245277e-01
  8.6180013e-01
  1.3203121e+00
  2.6562650e+00
  1.7206546e+00
 -1.7856410e-01
  3.8826612e-01
  1.2250986e-01
  1.2950433e+00
  3.4596962e-01
  2.4065859e+00
  3.4159297e-01
 -8.9414400e-01
 -1.0327319e+00
  4.8940516e-01
  6.3753289e-01
 -8.4652960e-01
 -6.4882988e-01
  4.1846636e-01
  1.0620521e+00
 -5.4790634e-01
 -1.0280918e-01
 -1.8430758e-01
  1.5006737e+00
 -4.4872132e-01
 -3.4003463e-01
  9.8730522e-01
 -8.2577389e-01
 -1.2990055e+00
 -2.4003322e-01
  3.6686945e-01
 -3.1829660e+00
 -2.6661224e+00
 -7.3865604e-01
 -7.7935326e-01
 -5.2740101e-02
 -4.0698054e-01
  6.0069013e-01
  1.9305564e+00
 -7.7097023e-01
 -4.3174362e-01
 -1.2957548e+00
  6.6142184e-01
 -1.4950038e+00
  3.3183601e-01
 -3.8055846e-01
  1.4835282e-01
  1.1017647e+00
  1.5700763e+00
 -3.9441732e-01
 -7.8229028e-01
  1.6826167e+00
  1.1179299e+00
  3.2791856e-01
 -3.3594719e-01
  4.0746105e-01
  1.1989328e+00
  1.3576632e+00
 -2.1641178e-01
 -4.5231734e-03
  1.2447116e-02
  4.8117697e-01
 -5.2312392e-01
  3.4522414e-01
 -4.1824150e-01
 -2.1518700e+00
 -1.3641354e+00
  1.0807620e+00
  8.8192903e-02
 -8.2341206e-01
  6.4398187e-01
  1.0447810e+00
  3.7393287e-01
 -6.4473510e-01
  1.1228226e-01
  1.3178785e-01
 -2.0372748e+00
  1.1578824e-01
 -4.2460340e-01
 -2.0433908e-02
 -4.3583474e-01
 -3.3774352e-01
  1.2210059e+00
 -6.3213326e-02
  1.0307542e+00
 -4.1511703e-01
  8.1658196e-01
 -4.6853584e-01
  5.2036375e-01
  2.5727916e-01
 -1.0017982e+00
 -1.1319257e+00
 -5.7913697e-01
  1.3546278e+00
  1.0813357e+00
  7.7418959e-01
  6.9617766e-01
 -2.5624189e-01
  1.8903732e+00
  7.8908765e-01
  2.2966888e+00
 -1.7437357e-01
  1.2718884e+00
  8.7546110e-01
 -1.1251070e+00
  2.9942882e+00
 -2.3817630e-01
  9.0039939e-01
 -7.0133233e-01
  4.8470211e-01
 -1.7016315e+00
 -8.3843780e-01
 -8.3256173e-01
 -8.2752913e-02
 -6.5432894e-01
 -1.1127279e+00
 -7.7572751e-01
 -1.6973587e+00
  4.1798168e-01
 -5.5111790e-01
 -1.5687035e+00
  1.0983702e+00
 -5.1184267e-01
  1.7244016e-01
  3.1314854e-02
 -4.5655558e-01
 -1.1013231e+00
 -7.6248771e-01
  1.2743469e+00
  8.1210697e-01
  7.7138251e-01
  1.0224594e+00
  1.3453913e+00
 -2.8811431e-02
 -1.5510850e-01
  7.0528701e-02
 -7.9953200e-01
  6.3617176e-01
 -4.9312273e-01
  8.0980563e-01
 -4.2208540e-01
 -1.1469785e+00
  4.8965061e-01
  5.2247041e-01
 -1.1219864e-01
 -4.0608820e-01
  2.7127543e-01
 -8.5867709e-01
  5.1879233e-01
  4.5300409e-01
 -4.0343726e-01
  4.1423991e-01
 -1.9206924e+00
  2.2934994e-01
 -2.7483687e-01
  2.5018916e-01
  9.8607713e-01
  3.1933308e-02
 -1.0721920e+00
 -1.0021354e+00
  3.6603886e-01
 -8.9253825e-01
  1.1840171e+00
  7.5680631e-01
  3.1156421e-01
 -7.7475138e-02
 -7.7645862e-01
 -1.0761656e+00
  4.2156509e-01
  2.2351022e+00
 -8.4888381e-01
 -1.6085249e+00
  6.3024884e-01
 -7.5466645e-01
 -1.3991563e+00
  2.8225291e+00
  8.5490036e-01
 -1.4434313e+00
  6.8326712e-01
 -2.2324862e+00
 -7.3586780e-01
  2.6734594e-02
  5.4480731e-01
  4.9448818e-01
  9.5889425e-01
 -5.7357776e-01
  6.8891239e-01
 -8.0680090e-01
 -8.9677775e-01
 -2.7507715e+00
 -1.9997625e-01
  1.4650496e+00
 -1.7301546e+00
 -8.3664256e-01
 -9.4529378e-01
  1.0028750e+00
  6.4959550e-01
 -1.0347736e+00
 -2.7634794e-01
 -1.4576427e+00
  9.7505027e-01
 -2.2946250e+00
  1.0453491e+00
  1.8607709e+00
 -2.5707150e-03
 -2.8860492e-01
  1.2424978e+00
 -1.0167042e+00
 -1.0997365e-03
  3.0147111e-01
  1.7058317e-01
 -7.0327652e-01
  1.0981706e+00
 -1.1105614e+00
 -1.0334152e+00
 -3.2822454e-01
  4.9476025e-01
 -5.4867375e-01
  1.0591716e-01
  1.0268250e+00
 -1.1221310e+00
 -1.9752501e-01
 -7.5822538e-01
  8.7864631e-01
 -4.5980930e-02
 -6.1835859e-02
 -5.3153586e-01
  1.4723107e+00
  1.2415982e+00
  5.4605955e-01
 -2.3606801e-01
  1.8165059e-01
  5.3300864e-01
  3.0763996e-01
 -9.6566099e-01
  4.6410632e-01
 -9.0680808e-01
 -8.8189416e-02
 -6.3800907e-01
  7.5063992e-01
 -9.9221247e-01
  1.4394097e+00
 -1.6042355e+00
 -1.8023188e+00
  3.8041770e-02
 -1.5163293e+00
 -1.5386130e+00
 -6.8475658e-01
 -1.3510662e+00
 -1.0222235e-01
 -3.1170559e-01
 -9.1591471e-01
  1.3908520e+00
 -2.5635934e+00
 -2.4015765e+00
 -7.8291744e-02
  1.4604858e+00
  1.4861944e+00
  3.2558911e+00
 -3.7292442e-01
 -1.9692557e+00
 -1.1885953e+00
  1.4247361e+00
  6.9063097e-02
 -3.5568637e-01
  1.3178999e+00
  2.2196536e+00
 -1.1422259e+00
 -1.8551983e+00
  2.2047670e-01
 -3.0039740e-01
  1.0710083e+00
 -3.1843388e-01
 -4.7237304e-01
  5.3727627e-01
  1.0498085e+00
  1.5772041e+00
  1.5633041e+00
  3.0945170e-01
  1.5424994e-01
  8.5833865e-01
  6.3113618e-01
 -7.0988083e-01
 -1.0206250e+00
  8.0649328e-01
  1.3596467e+00
  2.0995188e+00
  1.4027930e+00
 -9.1168034e-01
  8.2006049e-01
 -2.0543861e-01
 -1.2575098e+00
 -1.1944505e+00
 -2.3212031e-01
  2.0642843e+00
  3.3514315e-01
 -1.1095188e-02
 -4.3620247e-02
  1.0479254e+00
 -2.5493094e-01
 -1.0555060e+00
 -6.2566489e-01
  5.9184915e-01
  1.5181674e-01
 -3.6112577e-01
 -5.0995773e-01
 -9.2299885e-01
  2.4022104e-01
  1.3013463e+00
  2.8610330e+00
  1.2482775e+00
  2.2311203e+00
  1.5545540e+00
  5.9095357e-02
 -2.1430515e-01
 -1.1512744e+00
 -5.9269762e-01
  6.2842304e-01
  1.7089199e-01
 -1.5553346e+00
  2.8465733e-01
  3.1853667e-01
  1.0238031e+00
 -1.0391302e-01
  2.5818315e-01
  1.8700930e-01
  1.1552929e+00
  6.5992810e-02
 -3.0510291e-01
 -6.1047935e-01
 -7.4894398e-01
  8.3592314e-01
 -4.8234409e-01
 -1.0433742e+00
  9.4028652e-01
  1.7211860e+00
 -3.1538575e+00
  5.2560169e-01
 -1.3766146e+00
  1.4606496e+00
  5.0371587e-01
  3.3236405e-01
  3.6031190e-01
 -2.4128940e+00
 -2.0701034e+00
 -9.1586447e-01
  1.0759991e-01
 -7.9925859e-01
 -2.2835685e-02
  2.0814190e+00
  6.7707372e-01
  9.4185375e-02
 -1.1329118e+00
 -2.0029345e+00
  4.6637747e-01
 -3.2165874e-02
 -5.2356482e-01
 -1.5121989e+00
  2.4158849e-01
  4.5515662e-01
 -6.1488706e-01
  1.6327389e+00
  3.9458919e-01
 -2.4760707e-01
 -3.4001831e-02
  1.1381825e+00
  1.3170069e+00
 -1.1726820e+00
 -9.5577204e-01
  5.1036399e-02
 -1.2955310e+00
  1.7647519e+00
 -1.1934937e+00
  5.9288794e-01
 -6.1476445e-01
 -4.4939700e-01
 -7.7049309e-01
 -9.0701258e-01
  1.5574898e+00
 -4.9732551e-01
  1.5624517e+00
  3.1500483e-01
 -1.0657099e+00
 -1.6481445e+00
 -4.1674618e-02
 -4.4997224e-01
  2.4819294e-01
  4.0088001e-01
  6.5841919e-01
  3.3638877e-01
 -1.1515524e-01
  1.6592696e+00
  1.5174086e+00
 -1.3060733e+00
  1.7672887e-01
  7.6208448e-01
 -1.6900383e+00
 -2.5980034e+00
  6.0067362e-01
  1.3464030e+00
  9.6573102e-01
 -1.2050233e+00
  4.9327007e-01
  8.0630565e-01
  5.5604970e-01
 -5.6142604e-01
 -2.3850024e-01
 -8.0357957e-01
  1.2273639e+00
  5.5837768e-01
  8.0387777e-01
  1.1298250e+00
  9.7912562e-01
 -5.7561105e-01
  1.3618073e+00
  9.9058437e-01
  4.0822092e-02
  1.1810180e+00
  1.1216682e+00
 -4.0994251e-01
 -1.7643800e+00
 -1.4544994e+00
 -8.8751584e-02
  2.0510571e+00
 -1.2717398e+00
 -1.2510552e+00
  6.4687872e-01
  5.0441444e-01
 -2.7986014e-01
 -1.4383352e+00
 -1.2783834e+00
  9.4806278e-01
  2.7748895e-01
  3.8279647e-01
 -1.0430966e-02
 -4.5450294e-01
  5.2267802e-01
 -7.0133752e-01
  4.1588816e-01
  1.1471550e+00
 -8.5476017e-01
 -4.3100670e-01
  1.0593412e+00
 -8.1028312e-01
  2.7751772e+00
 -3.0010509e-01
 -5.6923229e-01
  1.1331854e+00
  9.1678463e-02
 -1.7896085e+00
 -3.7554428e-02
 -4.9979773e-01
 -1.2915552e+00
 -3.4002760e-01
  2.9101625e-01
  1.5317321e+00
  1.1938273e+00
  6.7243499e-01
  9.4897524e-02
 -1.5376064e-01
 -6.8787330e-01
  3.1869292e-02
  3.1869292e-02
  3.1869292e-02
  3.1869292e-02
  3.1869292e-02
  1.6477494e-01
  1.6477494e-01
  1.6477494e-01
  1.6477494e-01
  1.6477494e-01
  2.7727848e-01
  2.7727848e-01
  2.7727848e-01
  2.7727848e-01
  2.7727848e-01
  5.7773978e-02
  5.7773978e-02
  5.7773978e-02
  5.7773978e-02
  5.7773978e-02
  6.7560442e-02
  6.7560442e-02
  6.7560442e-02
  6.7560442e-02
  6.7560442e-02
  5.0816953e-01
  5.0816953e-01
  5.0816953e-01
  5.0816953e-01
  5.0816953e-01
